tree
version=v4
num_class=1
num_tree_per_iteration=1
label_index=0
max_feature_idx=29
objective=binary sigmoid:1
feature_names=Column_0 Column_1 Column_2 Column_3 Column_4 Column_5 Column_6 Column_7 Column_8 Column_9 Column_10 Column_11 Column_12 Column_13 Column_14 Column_15 Column_16 Column_17 Column_18 Column_19 Column_20 Column_21 Column_22 Column_23 Column_24 Column_25 Column_26 Column_27 Column_28 Column_29
feature_infos=[-2.0398523408238733:1.6568942940288416] [-25.267037524531499:1.2486434433628077] [-11.238533749674307:29.038209450962341] [-23.350609221764241:2.5533069789072282] [-3.1512164852107198:11.406432996400921] [-26.992099746150686:13.801273537729326] [-9.7784647494006194:11.265399929554645] [-51.278429778915751:6.8389788528921303] [-92.858792242225093:45.21662628992302] [-16.025910137240501:4.0168989670685935] [-32.600237087609948:4.446946402215989] [-3.0333301450027541:11.472227717413318] [-22.573707852990776:2.2310597499421196] [-3.2198969923294229:3.1014834051279285] [-24.099492662347689:4.4744948840913974] [-5.8934575061533918:3.047001150011404] [-19.501825567281809:4.1150489154613261] [-29.63157992966277:8.6119760298283516] [-13.369021155684642:5.5904217380672492] [-6.5298640954593274:8.3628204973225984] [-22.000862739153806:60.544557548227253] [-80.221448435721371:35.425671892087728] [-4.1407721309130041:12.689925491461464] [-90.628855978834054:25.639904766220631] [-4.0689193202366054:2.5513024181553985] [-11.920729678760891:5.2919110401645675] [-2.7818334590585292:4.6480092821319063] [-57.21001142330465:23.897249351861372] [-25.552238815983454:25.116199189476621] [-0.78983283012722461:48.026471825416358]
tree_sizes=3006 3409 3414 3419 3407 3411 3425 3421 3414 3417 3415 3425 3431 3403 3428 3434 3430 3443 3419 3438 3427 3431 3443 3442 3435 3448 3451 3452 3446 3444 3454 3443 3437 3451 3467 3449 3452 3448 3458 3455 3464 3455 3463 3451 3471 3467 3465 3465 3456 3455 3467 3455 3460 3474 3470 3468 3473 3464 3453 3467 3466 3469 3465 3472 3455 3475 3489 3485 3482 3462 3456 3474 3481 3480 3483 3477 3478 3486 3474 3481 3474 3481 3479 3472 3490 3490 3501 3496 3494 3495 3509 3494 3502 3506 3516 3521 3513 3532 3530 3521

Tree=0
num_leaves=31
num_cat=0
split_feature=14 29 19 8 17 18 27 0 5 28 15 5 11 12 2 14 19 13 0 10 1 15 16 26 20 18 15 1 25 1
split_gain=121590 7714.35 4392.27 3582.44 2358.54 1367.37 942.127 862.042 516.848 415.625 272.451 280.809 239.124 212.717 187.173 355.108 720.207 476.655 180.343 300.393 168.299 165.883 159.123 158.628 155.297 250.907 152.477 147.317 135.176 131.919
threshold=-2.0440074791118534 3.1890927944746745 -2.7104158258279951 -1.8507705631702676 1.0561513864488259 0.28240502349533397 1.9979474217403013 -0.70496788160968082 0.39197366475925727 2.5126978948678338 -0.71977877616051444 0.52232353176037039 -0.4448658008977911 -0.56436832367560941 0.34125991617168522 -0.60119579287281488 -1.3877048187611205 -0.60539430086027302 -0.58204440778386035 -0.81739717846464544 0.90342950899713637 0.48307029989873473 0.27893113922463941 0.95029069060809512 1.4620087698237356 -0.49141927049225514 1.4492047890762911 -0.10045096050753692 0.093734352987857344 -0.52560242254004519
decision_type=2 2 2 2 2 2 2 2 2 2 2 2 2 2 2 2 2 2 2 2 2 2 2 2 2 2 2 2 2 2
left_child=20 2 13 -4 6 24 9 8 -7 14 -9 -12 -13 -2 -5 16 17 -16 19 21 -1 -18 -14 28 -6 -26 -21 -27 -10 -17
right_child=1 -3 3 4 5 7 -8 10 23 -11 11 12 22 -15 15 29 18 -19 -20 26 -22 -23 -24 -25 25 27 -28 -29 -30 -31
leaf_value=0.19947756156261925 0.19446064139941691 0.20000000000000001 0.18599078341013825 -0.19954973064243789 -0.18212593094109683 -0.10564102564102565 0.20000000000000001 -0.19031770045385779 -0.20000000000000001 0.20000000000000001 -0.15838641188959662 -0.11830985915492959 0.15583333333333335 -0.16056338028169015 0.15867446393762186 -0.19759252144960943 -0.17777777777777778 -0.18782608695652175 -0.18710517746662325 -0.18900144717800291 -0.125 0.17358490566037738 -0.10252100840336134 -0.19230769230769232 -0.19833333333333336 -0.20000000000000001 0.071844660194174764 0.18809523809523809 0.17253333333333334 -0.1492616433169254
leaf_weight=17035.5 343 582.75 271.25 12437 738.5 97.5 61.5 165.25 9.9999999999999982 27 117.75 71 120 17.75 128.25 3904.5 18 57.5 767.75 172.75 15.999999999999998 53 29.75 12.999999999999998 60 12.749999999999998 25.75 42 375 660.25
leaf_count=68142 1372 2331 1085 49748 2954 390 246 661 40 108 471 284 480 71 513 15618 72 230 3071 691 64 212 119 52 240 51 103 168 1500 2641
internal_value=0 -0.158846 -0.1689 -0.175006 -0.179862 -0.0723347 -0.190739 0.00705529 0.100706 -0.192056 -0.085062 -0.033678 0.0328426 0.176992 -0.192636 -0.177781 -0.129926 0.0514132 -0.162401 -0.0920223 0.199173 0.084507 0.104508 0.151256 -0.165309 -0.0570806 -0.155164 0.0977169 0.162857 -0.190602
internal_weight=0 21380.5 20797.8 20437 20165.8 1852.5 18313.2 999.25 495.5 18251.8 503.75 338.5 220.75 360.75 18224.8 5787.75 1223 185.75 1037.25 269.5 17051.5 71 149.75 398 853.25 114.75 198.5 54.75 385 4564.75
internal_count=153728 85522 83191 81748 80663 7410 73253 3997 1982 73007 2015 1354 883 1443 72899 23151 4892 743 4149 1078 68206 284 599 1592 3413 459 794 219 1540 18259
is_linear=0
shrinkage=0.1


Tree=1
num_leaves=31
num_cat=0
split_feature=14 29 19 8 17 18 27 0 5 28 15 5 2 14 13 4 29 12 23 22 13 1 2 26 1 27 29 25 0 2
split_gain=99521 6312.72 3593.94 2954.11 1971.92 1064.05 775.53 716.898 384.896 346.772 256.988 233.677 177.847 337.767 598.518 667.522 221.275 175.252 157.242 229.512 149.817 137.952 128.83 123.86 116.44 402.231 209.08 112.221 102.929 97.1231
threshold=-2.0440074791118534 3.1890927944746745 -2.7104158258279951 -2.284615985236595 1.0898114611163119 0.26873538604572222 1.9979474217403013 -0.70496788160968082 0.3764922689279685 2.5126978948678338 -0.36006436828591498 0.52232353176037039 0.34125991617168522 -0.60119579287281488 -0.48245775524213536 -0.37513021311679512 -0.76285665833484984 -0.36904579477358801 -0.68505844455847997 -0.12463482777200242 -0.79404108527851547 0.90342950899713637 1.3114724822489314 0.93623392267321481 -0.52560242254004519 0.15638984719664542 -0.74733638283593995 0.1067812436035402 1.0166539306181208 -0.039483525315840519
decision_type=2 2 2 2 2 2 2 2 2 2 2 2 2 2 2 2 2 2 2 2 2 2 2 2 2 2 2 2 2 2
left_child=21 2 17 -4 6 18 9 8 -7 12 -9 -12 -5 14 15 -14 -17 -2 19 29 -13 -1 -22 27 -15 -26 -27 -10 -18 -6
right_child=1 -3 3 4 5 7 -8 10 23 -11 11 20 13 24 -16 16 28 -19 -20 -21 22 -23 -24 -25 25 26 -28 -29 -30 -31
leaf_value=0.18138820988749671 0.17557033846370287 0.18187308119005771 0.18302811700889987 -0.18146488686461273 0.14466647557299353 -0.089169641742414374 0.18188240845555517 -0.16916502787193616 -0.1820770488400813 0.18243457650062483 -0.13970066703163225 -0.17213005943120327 -0.18249465084667235 -0.1795127876962776 -0.15884652892186865 -0.13353345324893914 0.15408842751920268 -0.1719669245449526 -0.16893295140327011 -0.16582565415803291 0.12225123048346871 -0.11295634160790098 -0.19723593197641176 -0.12314754091502594 -0.16713594395299439 0.15868761010342972 -0.14100807284513725 0.15908304974110155 -0.18472903311223218 -0.18312744746765866
leaf_weight=16867.151582837105 342.26165392994881 576.96113044023514 249.33747562766075 12378.7290212363 52.789390668272972 91.970722287893295 61.384777575731277 187.95455555617809 9.9024501144885999 27.23004424571991 98.627638891339302 25.161536693572998 136.56853576004505 3888.9651082754135 885.44323593378067 35.488496959209442 186.72743046283722 15.152132019400595 635.38994428515434 80.056103393435478 133.04445581138134 15.937662124633787 13.944374799728392 17.353860750794411 562.10645358264446 64.134457498788834 36.541495308279991 366.28290893137455 9.4184047877788526 10.90649653971195
leaf_count=68142 1382 2331 1006 50009 213 369 248 758 40 110 397 101 551 15708 3572 143 752 61 2563 323 535 64 56 70 2261 258 147 1476 38 44
internal_value=0 -0.144367 -0.153503 -0.159053 -0.163318 -0.0610636 -0.172962 0.0103131 0.09501 -0.174158 -0.0793278 -0.0169692 -0.174692 -0.160251 -0.11429 -0.00714075 0.0962456 0.160837 -0.147565 -0.0531177 0.0533456 0.18111 0.0919425 0.138053 -0.17291 -0.134167 0.0499096 0.150103 0.137819 0.0885391
internal_weight=0 21179.8 20602.9 20245.5 19996.1 1723.38 18272.7 944.243 485.51 18211.4 458.733 270.778 18184.1 5805.39 1253.65 368.203 231.634 357.414 779.142 143.752 172.15 16883.1 146.989 393.539 4551.75 662.782 100.676 376.185 196.146 63.6959
internal_count=153728 85522 83191 81748 80742 6945 73797 3802 1955 73549 1847 1089 73439 23430 5056 1484 933 1443 3143 580 692 68206 591 1586 18374 2666 405 1516 790 257
is_linear=0
shrinkage=0.1


Tree=2
num_leaves=31
num_cat=0
split_feature=14 29 19 8 17 18 27 28 5 26 28 1 25 12 2 14 19 13 0 10 15 16 18 24 11 15 16 1 27 29
split_gain=82900 5254.81 2990.81 2458.53 1669.96 936.517 647.254 622.826 477.156 287.115 283.129 216.16 209.654 147.253 138.55 244.166 490.766 330.487 146.209 234.809 130.364 126.717 445.968 143.427 125.558 123.696 104.276 102.869 322.544 186.995
threshold=-2.0440074791118534 3.1890927944746745 -2.7104158258279951 -2.284615985236595 1.0561513864488259 0.26873538604572222 1.9979474217403013 1.0000000180025095e-35 0.39197366475925727 0.95029069060809512 2.5126978948678338 -1.1304610816190321 1.3645802739319082 -0.56436832367560941 0.34125991617168522 -0.60119579287281488 -1.3877048187611205 -0.60539430086027302 -0.58204440778386035 -0.81739717846464544 0.48307029989873473 0.18716857522679717 -0.49141927049225514 0.42705320111606065 -0.8782275085654826 1.4492047890762911 0.9897656419625992 -0.55064964916141457 0.15638984719664542 -0.75508310442495075
decision_type=2 2 2 2 2 2 2 2 2 2 2 2 2 2 2 2 2 2 2 2 2 2 2 2 2 2 2 2 2 2
left_child=24 2 13 -4 6 21 10 12 26 11 14 -10 -7 -2 -5 16 17 -16 19 20 -18 -6 -23 -24 -1 -21 -9 -17 -29 -30
right_child=1 -3 3 4 5 7 -8 8 9 -11 -12 -13 -14 -15 15 27 18 -19 -20 25 -22 22 23 -25 -26 -27 -28 28 29 -31
leaf_value=-0.22218128181392496 0.16334014366545768 0.16825816740612271 0.16914123102029785 -0.16785473731478284 -0.16873732684541468 -0.16135161447503829 0.16826531738176084 -0.11900428128009855 -0.13091849210460799 -0.17670748610901701 0.16821985481649571 0.13156478075130049 0.12254342100257445 -0.13562952839016537 0.13300487772156044 -0.16609209671222275 -0.1510198997575127 -0.15901265862906847 -0.15842082186157716 -0.1599017387821616 0.16377467268557377 -0.17024746712392413 0.14126724673352412 -0.17068191940181768 0.1677217432949703 0.075830002277741559 0.18657376947350451 -0.15396090383001673 0.14201554089137139 -0.12679857550783133
leaf_weight=8.2631990909576398 331.52169990539551 562.01069574058056 243.12863713502884 11998.07428792119 511.5547950565815 224.93116702139378 59.794651448726654 152.8265086710453 33.480645552277565 36.012214377522469 26.036345601081848 498.66324070096016 29.414613679051399 17.335935682058334 125.39124928414822 3753.8649322986603 17.546990066766739 56.093011528253555 747.62490628659725 167.7712015658617 52.562664106488228 211.67150565981865 82.555745393037796 17.942066416144371 16439.859718799591 25.664961606264114 12.047356665134428 561.95751665532589 64.873748421669006 43.049974843859673
leaf_count=34 1372 2331 1006 49755 2110 924 248 621 137 147 108 2043 120 71 513 15555 72 231 3079 691 212 873 336 74 68172 103 49 2305 260 176
internal_value=0 -0.133333 -0.141765 -0.14689 -0.150828 -0.0593689 -0.160186 0.00631161 0.0530952 0.0965574 -0.1613 0.11505 -0.12852 0.148483 -0.161787 -0.148824 -0.108668 0.0427483 -0.135844 -0.0717987 0.0849881 -0.138098 -0.0878898 0.0855744 0.167526 -0.128625 -0.0966756 -0.15965 -0.123552 0.0347876
internal_weight=0 20665.4 20103.4 19754.5 19511.4 1811.1 17700.3 987.376 733.03 568.156 17640.5 532.144 254.346 348.858 17614.5 5616.4 1192.65 181.484 1011.17 263.546 70.1097 823.724 312.169 100.498 16448.1 193.436 164.874 4423.75 669.881 107.924
internal_count=153728 85522 83191 81748 80742 7434 73308 4041 2997 2327 73060 2180 1044 1443 72952 23197 4901 744 4157 1078 284 3393 1283 410 68206 794 670 18296 2741 436
is_linear=0
shrinkage=0.1


Tree=3
num_leaves=31
num_cat=0
split_feature=14 29 19 8 17 18 27 28 5 26 28 10 25 12 2 14 13 4 29 26 29 14 1 16 18 24 0 0 21 15
split_gain=69978.8 4431.89 2521.55 2073.07 1439.47 790.153 546.281 518.932 395.697 242.428 238.959 199.283 175.469 124.752 124.322 212.533 416.158 476.403 151.68 122.437 270.384 118.418 120.541 109.083 375.515 118.052 104.951 196.472 109.348 105.952
threshold=-2.0440074791118534 3.1890927944746745 -2.7104158258279951 -2.284615985236595 1.0561513864488259 0.26873538604572222 1.9979474217403013 1.0000000180025095e-35 0.3764922689279685 0.93623392267321481 2.5126978948678338 -1.1785279612257458 1.3645802739319082 -0.36904579477358801 0.34125991617168522 -0.57868820458274783 -0.52310905921694661 -0.37513021311679512 -0.68193163844248195 -0.56472155788200129 -0.67625716734014973 -2.292883073548857 0.78627642010987409 0.18716857522679717 -0.49141927049225514 0.42705320111606065 -0.95210769371722159 -1.0873160343291846 -0.16141172085471775 0.67451248232018723
decision_type=2 2 2 2 2 2 2 2 2 2 2 2 2 2 2 2 2 2 2 2 2 2 2 2 2 2 2 2 2 2
left_child=21 2 13 -4 6 23 10 12 -9 11 14 -10 -7 -2 -5 16 17 -16 -19 20 -13 -1 -23 -6 -25 -26 27 -18 -29 -30
right_child=1 -3 3 4 5 7 -8 8 9 -11 -12 19 -14 -15 15 -17 26 18 -20 -21 -22 22 -24 24 25 -27 -28 28 29 -31
leaf_value=0.15777811450462312 0.15163248867307189 0.15768741416156917 0.15838213885143759 -0.157279377541302 -0.15773166141741213 -0.14985963781005429 0.15769304328612832 -0.092172762527563984 -0.10893365515191725 -0.14431783781763668 0.15765722888141512 -0.21225077303484963 0.11213313137428321 -0.14876876414994913 -0.15945607296043945 -0.14947176811892696 -0.16346193591463598 -0.098010710018066632 0.12770325024436677 0.1512443409889497 0.13347216296270178 0.10838520008440133 -0.13435939038655501 -0.15917180934948194 0.1278101225886849 -0.15960298399014011 -0.15499034193698766 -0.16159727228071261 -0.16084647653940287 0.1907595218394581
leaf_weight=15689.22444036603 322.20805606245995 540.79076872766018 234.13459604978561 11547.152545824647 493.43756322562695 218.29632303118706 57.537340342998505 155.98687940835953 39.716830238699913 41.66022752225399 25.052424967288971 32.230857372283936 28.954203054308891 14.444002836942671 125.7530502229929 4225.6599374562502 92.599402964115143 36.158426135778427 168.56759662926197 373.51801051199436 75.877263128757477 117.65269048511982 24.762096956372261 204.13984648883343 82.139104679226875 17.301074340939522 702.95662838220596 17.621863961219788 10.573673292994497 45.233276173472404
leaf_count=67598 1382 2331 1006 49755 2110 924 248 644 163 174 108 133 120 61 537 18116 393 151 704 1566 317 506 102 873 336 74 2992 75 45 184
internal_value=0 -0.124674 -0.13255 -0.137344 -0.141023 -0.0550071 -0.149916 0.00579082 0.0487662 0.087815 -0.150957 0.106365 -0.119179 0.138744 -0.151413 -0.138927 -0.101776 -0.00626173 0.087838 0.124119 0.0303999 0.156954 0.0661785 -0.128714 -0.0815482 0.0778046 -0.138101 -0.0665922 0.055568 0.124141
internal_weight=0 19929.7 19388.9 19052.3 18818.1 1763.26 17054.9 966.241 718.99 563.003 16997.3 521.343 247.251 336.652 16972.3 5425.12 1199.46 330.479 204.726 481.626 108.108 15831.6 142.415 797.018 303.58 99.4402 868.985 166.028 73.4288 55.8069
internal_count=153728 85522 83191 81748 80742 7434 73308 4041 2997 2353 73060 2179 1044 1443 72952 23197 5081 1392 855 2016 450 68206 608 3393 1283 410 3689 697 304 229
is_linear=0
shrinkage=0.1


Tree=4
num_leaves=31
num_cat=0
split_feature=14 29 19 8 17 18 27 0 24 28 8 15 5 26 11 2 25 14 26 1 4 23 15 12 14 16 25 1 16 16
split_gain=59678.5 3774.96 2146.65 1770.06 1231.95 672.454 462.048 434.832 291.687 203.766 157.215 140.416 148.148 136.838 131.117 113.667 189.995 309.639 379.261 349.414 316.577 161.207 147.393 107.521 106.797 103.765 101.15 100.296 97.3071 92.142
threshold=-2.0440074791118534 3.1890927944746745 -2.7104158258279951 -1.8507705631702676 1.0561513864488259 0.26873538604572222 1.9979474217403013 -0.68535508301598458 0.41269610166945975 2.5126978948678338 0.4882052468576798 -0.71977877616051444 0.52232353176037039 0.93623392267321481 -0.4448658008977911 0.34125991617168522 0.31322515812675328 0.058396671907113513 -0.25029609185447554 -1.1122515717918378 0.8717058787655193 -1.4159625905909805 1.4492047890762911 -0.56436832367560941 -2.292883073548857 0.27893113922463941 1.5297033229152601 0.75388751213257699 1.7228902579959913 0.40060441588481843
decision_type=2 2 2 2 2 2 2 2 2 2 2 2 2 2 2 2 2 2 2 2 2 2 2 2 2 2 2 2 2 2
left_child=24 2 23 -4 6 29 9 8 10 15 13 -9 28 -7 -14 -5 -17 18 19 -18 21 -21 -22 -2 -1 -16 -23 -26 -13 -6
right_child=1 -3 3 4 5 7 -8 11 -10 -11 -12 12 14 -15 25 16 17 -19 -20 20 22 26 -24 -25 27 -27 -28 -29 -30 -31
leaf_value=0.14934483433702095 0.1441938700789232 0.14927178044610043 0.13875568156837417 -0.1488453543950996 -0.14611134660241495 0.12991112007882874 0.14927069674691326 -0.14375148505086335 -0.15383738124553981 0.14924749265878964 -0.16930388437064148 -0.14826559102075984 -0.089948769789564342 -0.099297140520708566 0.12092279641659776 -0.14298238257918636 -0.14164672818644969 -0.14717131740065423 -0.14100287630322725 -0.15183456715782664 -0.13869387263791721 0.16932538317341597 0.17113197382442399 -0.11874285618886873 0.10325351022942467 -0.10258206777042751 -0.15381652961247869 -0.11068280622560873 0.20561646437383702 -0.072035716691210103
leaf_weight=14955.212385356426 305.7131273150444 515.44829544425011 242.49571752548218 11006.890918076038 512.45340509712696 370.87867292761803 54.396964251995087 149.48795731365681 50.793231680989265 23.87777191400528 20.627985566854477 99.855861559510231 67.981546461582184 28.0135677754879 112.62915645539761 3709.3846184760332 121.13609397411346 727.09511500597 308.16049611568451 19.032324954867363 87.487897843122482 189.14915619790554 18.62321001291275 16.385674640536308 111.57157815992832 25.469007387757301 10.209609210491179 27.269774168729782 8.4257549941539747 249.76534619927406
leaf_count=67598 1372 2331 1085 49748 2290 1612 246 661 212 108 87 429 287 119 478 16619 540 3233 1363 84 386 805 76 71 495 105 45 113 34 1096
internal_value=0 -0.117665 -0.125088 -0.129613 -0.133234 -0.0521368 -0.141687 0.00473513 0.0724906 -0.142662 0.0998932 -0.0639646 -0.0260236 0.113814 0.023738 -0.143093 -0.130893 -0.100613 -0.0557038 0.00328078 0.057382 0.12623 -0.0843174 0.130818 0.148534 0.0797025 0.152777 0.0612344 -0.120729 -0.121838
internal_weight=0 19051.9 18536.4 18214.3 17971.8 1696.38 16275.4 934.163 470.313 16221 419.52 463.849 314.361 398.892 206.08 16197.2 5190.28 1480.89 753.799 445.638 324.502 218.391 106.111 322.099 15094.1 138.098 199.359 138.841 108.282 762.219
internal_count=153728 85522 83191 81748 80663 7410 73253 4024 2030 73007 1818 1994 1333 1731 870 72899 23151 6532 3299 1936 1396 934 462 1443 68206 583 850 608 463 3386
is_linear=0
shrinkage=0.1


Tree=5
num_leaves=31
num_cat=0
split_feature=14 29 12 17 19 28 16 6 18 27 15 17 28 2 19 12 14 29 29 3 29 26 4 28 25 14 8 9 8 4
split_gain=51299.9 3239.56 1862.33 1198.39 823.596 694.93 594.973 566.848 566.512 368.971 364.248 184.039 129.797 123.95 185.024 361.509 210.81 159.244 565.047 153.418 109.669 231.782 146.79 103.296 98.5021 98.1726 92.1317 85.3409 67.7902 66.0892
threshold=-2.0440074791118534 3.1890927944746745 -2.5673449898526304 1.0561513864488259 -2.7997448043233466 2.2795105517733236 -0.10421176947567797 -0.58677885739787194 -0.50847748659813197 1.9979474217403013 -0.84318895892348456 1.9576196966023776 -0.013774740687723582 0.34125991617168522 -1.5189572630656449 -0.56436832367560941 0.24458689447756612 -0.75508310442495075 -0.76285665833484984 0.85203770840213955 -0.76285665833484984 -0.54487611267928715 0.60142540213153839 2.2795105517733236 0.32681401405656713 -2.292883073548857 -1.5932990599373822 0.97993012539042035 0.60713131753986904 -0.41447789870324631
decision_type=2 2 2 2 2 2 2 2 2 2 2 2 2 2 2 2 2 2 2 2 2 2 2 2 2 2 2 2 2 2
left_child=25 2 -2 4 -4 9 11 -8 -9 13 -10 23 -12 -6 15 16 19 18 26 29 21 -14 -23 -5 -20 -1 -16 -27 -22 -15
right_child=1 -3 3 6 5 -7 7 8 10 -11 12 -13 20 14 17 -17 -18 -19 24 -21 28 22 -24 -25 -26 27 -28 -29 -30 -31
leaf_value=0.14249938391461861 0.14913992350246735 0.14243950394247973 0.14363994471860406 -0.13953208990299734 -0.14205495745926658 0.1406994198665151 -0.12447313553666833 -0.14685339525118254 -0.11840190800085891 0.14256374827027407 -0.15444467366090422 0.15431860363505651 -0.17844113553781166 -0.16375632788507088 0.10946555288552431 -0.13631923903286822 -0.11970228635656843 -0.13783428277972173 -0.14415180838905911 -0.15175315960153379 0.14850034264845971 -0.12081349961273485 0.14922850449758093 0.18167801013093898 0.18982152626983764 0.088525433902842843 -0.12561221366665651 -0.1425499505213032 -0.16730316428101391 0.15317895911686608
leaf_weight=14147.756439805031 255.51557314395905 487.58652113378048 108.08230425417423 567.17943103611469 10425.614357665181 91.974385634064674 270.25627493858337 132.4988547116518 82.338306561112404 47.746836543083191 18.582785785198212 23.044966086745262 35.792653441429138 6.9465886801481238 17.131812676787376 309.02627643942833 64.449624955654144 3733.7054030448198 9.9673781394958478 21.494517251849174 397.17387421429157 24.048724219202995 123.51874460279942 10.191567242145537 77.477304354310036 116.48037070035934 621.08809964358807 18.52450142800808 6.9156052768230429 124.48581694066525
leaf_count=67598 1197 2331 511 2633 49796 437 1217 611 380 228 83 102 153 31 77 1441 303 17566 47 101 1765 105 560 45 320 529 2894 79 30 558
internal_value=0 -0.111825 -0.118866 -0.122813 -0.131451 -0.133363 -0.0428513 0.00114295 0.0424997 -0.134993 0.0789468 -0.122801 0.105759 -0.135853 -0.122885 -0.0668154 0.0319926 -0.129503 -0.086639 0.0959229 0.113991 0.0498485 0.10522 -0.133862 0.151754 0.14169 -0.119302 0.0568188 0.143096 0.136428
internal_weight=0 18093.8 17606.2 17350.7 15659.2 15551.1 1691.54 1091.13 820.87 15459.1 688.371 600.416 606.032 15411.4 4985.77 526.403 217.377 4459.37 725.665 152.927 587.45 183.36 147.567 577.371 87.4447 14282.8 638.22 135.005 404.089 131.432
internal_count=153728 85522 83191 81994 74310 73799 7684 4904 3687 73362 3076 2780 2696 73134 23338 2434 993 20904 3338 690 2613 818 665 2678 367 68206 2971 608 1795 589
is_linear=0
shrinkage=0.1


Tree=6
num_leaves=31
num_cat=0
split_feature=14 29 12 17 19 28 16 6 15 18 27 17 28 2 25 14 22 1 3 18 19 12 24 16 7 29 26 4 14 1
split_gain=44394.2 2798.75 1607.95 1065.99 706.783 593.726 527.298 517.41 512.805 325.246 314.122 158.452 120.718 108.724 170.424 243.447 288.078 291.535 259.592 139.295 100.946 130.14 108.804 97.6038 96.5735 96.0636 202.756 119.854 92.4873 76.7948
threshold=-2.0440074791118534 3.1890927944746745 -2.5673449898526304 1.0212095837189581 -2.7997448043233466 2.2795105517733236 -0.10421176947567797 -0.58677885739787194 -0.82664091301947928 -0.50847748659813197 1.9979474217403013 1.9576196966023776 -0.013774740687723582 0.34125991617168522 0.31322515812675328 0.072087955215604446 -0.30525901002392969 -1.1122515717918378 -0.2806086131498064 0.054026248160308023 -1.5189572630656449 -0.56436832367560941 0.45435340480498804 0.69819067758823439 -2.4596343091328654 -0.76285665833484984 -0.61124373213068839 0.60142540213153839 -2.292883073548857 0.78627642010987409
decision_type=2 2 2 2 2 2 2 2 2 2 2 2 2 2 2 2 2 2 2 2 2 2 2 2 2 2 2 2 2 2
left_child=28 2 -2 4 -4 10 11 -8 -9 -10 13 24 -11 -6 20 16 -16 -18 -19 -20 21 22 -15 -21 -5 26 -14 -28 -1 -30
right_child=1 -3 3 6 5 -7 7 8 9 12 -12 -13 25 14 15 -17 17 18 19 23 -22 -23 -24 -25 -26 -27 27 -29 29 -31
leaf_value=0.13685501042853784 0.14274760486311888 0.1368052435697113 0.13780089273837703 0.17306505188601884 -0.1363852215874459 0.13459042738306048 -0.11680750013544146 -0.12286724497253161 -0.14071896509984477 -0.14625387948089993 0.13690679655155982 0.14664196143430133 -0.17409957247169042 -0.14442741348635424 -0.13267214936798269 -0.13146724134167925 -0.13010708779780858 -0.11193714663800612 -0.09742095842761532 0.1502936117513618 -0.13500869003125132 -0.1242853338716443 0.093047175172144655 -0.0818905567797127 -0.13284214522043036 0.13549521666774864 -0.10068351430016836 0.13947382312022458 0.089090606856294469 -0.10735368355351799
leaf_weight=13301.653387278318 241.00793345272541 458.40194879472256 100.72760620713234 10.507441475987433 9752.0977317690849 85.59508290886879 289.40086035430431 158.41059476137161 61.928166106343269 19.266020104289055 44.105389997363091 21.885696470737457 33.579629227519035 27.170209497213364 249.13805849850178 658.41620260477066 121.9233572781086 74.777899190783501 31.070111438632011 197.09497258067131 3073.7870505154133 159.43115562200546 66.551061734557152 19.936488702893257 578.43879756331444 399.87732735276222 25.074715599417686 121.35092920064926 107.10996569693089 24.440889120101929
leaf_count=67598 1197 2331 506 47 49528 431 1358 768 302 91 224 102 148 133 1216 3249 600 359 148 872 15344 789 306 95 2838 1851 112 577 506 102
internal_value=0 -0.106949 -0.113671 -0.117443 -0.12618 -0.128006 -0.0429588 -0.00186126 0.0387319 0.0774551 -0.129558 -0.117566 0.100006 -0.130373 -0.117842 -0.0879093 -0.0465812 0.00163917 0.0513882 0.100615 -0.13001 -0.0693127 0.0242022 0.128965 -0.127384 0.108187 0.0475234 0.098348 0.13603 0.0525931
internal_weight=0 17081 16622.6 16381.5 14661.8 14561.1 1719.72 1108.89 819.487 661.077 14475.5 610.832 599.149 14431.4 4679.3 1352.36 693.941 444.803 322.879 248.102 3326.94 253.152 93.7213 217.031 588.946 579.883 180.005 146.426 13433.2 131.551
internal_count=153728 85522 83191 81994 73800 73294 8194 5207 3849 3081 72863 2987 2779 72639 23111 6539 3290 2074 1474 1115 16572 1228 439 967 2885 2688 837 689 68206 608
is_linear=0
shrinkage=0.1


Tree=7
num_leaves=31
num_cat=0
split_feature=14 29 19 8 17 18 28 27 5 26 23 28 25 2 25 14 26 1 3 14 18 19 17 3 4 16 24 18 26 29
split_gain=38632.4 2431.14 1398.61 1163.28 885.882 477.049 297.337 296.403 236.577 155.775 135.512 128.644 104.37 93.2808 145.776 223.195 254.808 217.512 255.642 87.2445 83.3642 81.5959 110.939 93.8806 102.116 86.9725 78.0788 127.596 74.1362 156.33
threshold=-2.0440074791118534 3.1890927944746745 -2.7104158258279951 -2.284615985236595 1.0212095837189581 0.26873538604572222 -0.07951199590977738 1.9979474217403013 0.39197366475925727 0.92269960744558788 -1.1394659726476644 2.5126978948678338 1.2165733737485598 0.34125991617168522 0.31322515812675328 0.058396671907113513 -0.4716705406742871 -1.0932275223424341 -0.2806086131498064 -2.292883073548857 0.040851338861937099 -1.3498789932818525 0.49904268758896603 0.25433329516937392 0.72437704327203389 0.9897656419625992 -0.71426792495880864 -0.50847748659813197 -0.62108343021917467 -0.61772073699404773
decision_type=2 2 2 2 2 2 2 2 2 2 2 2 2 2 2 2 2 2 2 2 2 2 2 2 2 2 2 2 2 2
left_child=19 2 -2 -4 7 26 12 11 -8 10 -10 13 -7 -5 21 16 17 -16 -19 -1 -20 22 23 24 -15 -24 27 -6 29 -12
right_child=1 -3 3 4 5 6 8 -9 9 -11 28 -13 -14 14 15 -17 -18 18 20 -21 -22 -23 25 -25 -26 -27 -28 -29 -30 -31
leaf_value=0.13214117010599627 0.11502373620789526 0.13209932398403795 0.1335859685450278 -0.13158578589030351 -0.12407092437264076 -0.13007110055842783 -0.070667397194917173 0.13205250017604964 -0.16592909811209988 -0.10782400364231265 -0.16898790549125564 0.13221142292120644 0.066601133536699678 -0.13607956394855245 -0.11631055518797469 -0.12830186838540084 -0.11264911856311151 -0.11397995898531194 -0.14336835506093801 0.048979767608250763 0.13327131882298734 -0.13061373642849891 -0.11718658857847848 -0.13463438800599972 0.18219031909298811 0.14689743307522141 -0.12305065059477255 0.065954316354451425 0.11947686160153825 0.1077713269388077
leaf_weight=12442.724229842424 273.16783392429352 428.78242971003056 188.57324308156967 9117.1048419624567 80.343769893050194 177.68937890231609 157.69653148949146 44.848945632576942 20.296370729804039 45.148295745253563 29.981964766979218 19.34912234544754 31.814130932092667 18.951116681098938 95.401491463184357 619.71008151769638 298.12955258786678 63.532276928424835 11.578304782509802 127.44424225389957 184.06116183102131 2830.2342519462109 19.269308000802994 188.14279235899448 21.538269847631454 35.347257703542709 569.41466590762138 63.07798607647419 349.93537192046642 63.927464351058006
leaf_count=67598 1443 2331 1006 49487 420 911 728 244 91 215 130 105 148 99 496 3245 1520 319 56 608 836 15059 98 991 95 156 2973 288 1725 307
internal_value=0 -0.102813 -0.109262 -0.113255 -0.116326 -0.0456898 0.00371814 -0.124601 0.036361 0.0695014 0.0867503 -0.125452 -0.100205 -0.125821 -0.113838 -0.0853194 -0.0445096 0.012783 0.0603025 0.131298 0.116899 -0.125492 -0.0743197 -0.104908 0.0332236 0.0537258 -0.106441 -0.0404964 0.0983049 0.0194119
internal_weight=0 16047 15618.3 15345.1 15156.5 1589.33 876.49 13567.2 666.986 509.289 464.141 13522.3 209.504 13503 4385.9 1272.41 652.703 354.573 259.172 12570.2 195.639 3113.48 283.249 228.632 40.4894 54.6166 712.836 143.422 443.845 93.9094
internal_count=153728 85522 83191 81748 80742 7936 4255 72806 3196 2468 2253 72562 1059 72457 22970 6472 3227 1707 1211 68206 892 16498 1439 1185 194 254 3681 708 2162 437
is_linear=0
shrinkage=0.1


Tree=8
num_leaves=31
num_cat=0
split_feature=14 29 19 8 17 18 28 27 5 10 26 4 26 9 2 19 12 14 29 29 3 17 14 1 25 24 18 4 29 3
split_gain=33762.3 2120.38 1236.79 1011.84 826.468 419.265 260.677 259.646 212.716 147.841 117.723 117.028 106.157 116.133 93.3956 138.756 251.132 148.603 114.719 404.081 111.77 88.9719 86.148 74.3567 78.8544 72.6004 112.668 70.4118 171.574 66.2487
threshold=-2.0440074791118534 3.1890927944746745 -2.7997448043233466 -2.284615985236595 1.0212095837189581 0.26873538604572222 -0.17052784235797971 1.9979474217403013 0.39197366475925727 -1.061718382685487 0.92269960744558788 2.8064850824269532 -0.56472155788200129 0.23000818475019744 0.34125991617168522 -1.5189572630656449 -0.56436832367560941 0.28389668939056295 -0.75508310442495075 -0.76285665833484984 0.85203770840213955 1.9576196966023776 -2.292883073548857 0.1474391115645691 -0.22325553442829563 -0.78220562797832205 -0.50847748659813197 1.4699656826188039 0.96233499451626692 -0.041693418698472685
decision_type=2 2 2 2 2 2 2 2 2 2 2 2 2 2 2 2 2 2 2 2 2 2 2 2 2 2 2 2 2 2
left_child=22 2 -2 -4 7 25 21 11 23 -10 12 14 13 29 -5 16 17 20 19 -17 -16 -7 -1 24 -8 26 -6 28 -24 -11
right_child=1 -3 3 4 5 6 8 -9 9 10 -12 -13 -14 -15 15 18 -18 -19 -20 -21 -22 -23 27 -25 -26 -27 -28 -29 -30 -31
leaf_value=0.12816266752581049 0.13046233883856262 0.12812716232731389 0.12939928655680527 -0.12744039610727606 -0.11743481116445981 -0.12166271201822335 -0.13586486930972197 0.1280914953219002 -0.073686044730322614 -0.16978533085217448 -0.09084447131938661 0.15690616748729072 0.12861947661657647 0.12984651045314177 0.11955029219241707 -0.10778283108324174 -0.12102855465371504 -0.11257230551705742 -0.12337943746725961 0.13265549574413679 -0.13846177398589174 0.13832628798845167 -0.22304783463796307 -0.12122836603674654 0.1020643594317437 -0.11712759530704651 0.068899447617814372 0.13548252017730719 0.094715591172924246 0.096596698889683003
leaf_weight=11589.923387557268 218.96502958238125 399.37948089838028 175.86073939502239 8510.9181544333696 72.738313540816307 168.32745260000229 21.379660919308662 41.946178033947945 66.460398584604263 35.603667572140694 34.544080227613449 15.122004732489584 315.90057675540447 40.416899293661118 120.40256917476654 524.85358622670174 260.47277623414993 53.356154605746269 3077.8447328358889 80.636066079139709 19.51039956510067 14.279227927327154 26.217607647180557 98.008798629045486 39.972025096416473 545.48361305892467 58.586975336074829 50.907453954219818 48.287977576255798 12.654456630349157
leaf_count=67598 1238 2331 1006 49566 404 908 107 245 314 158 166 81 1647 208 598 2875 1437 288 17409 357 106 72 117 476 173 3019 268 257 234 65
internal_value=0 -0.0992061 -0.105414 -0.109 -0.111946 -0.0423694 0.00449599 -0.120294 0.0335587 0.0653131 0.0863505 -0.121117 0.10148 0.0047972 -0.121449 -0.109124 -0.056945 0.0294216 -0.115552 -0.0757625 0.0835714 -0.101332 0.127271 -0.067184 0.0191515 -0.101057 -0.0343072 0.0448352 -0.0171015 -0.0999335
internal_weight=0 15023.6 14624.2 14405.3 14229.4 1524.36 847.547 12705.1 664.941 505.58 439.12 12663.1 404.576 88.675 12648 4137.08 453.742 193.269 3683.33 605.49 139.913 182.607 11715.3 159.36 61.3517 676.809 131.325 125.413 74.5056 48.2581
internal_count=153728 85522 83191 81953 80947 7985 4294 72962 3314 2558 2244 72717 2078 431 72636 23070 2429 992 20641 3232 704 980 68206 756 280 3691 672 608 351 223
is_linear=0
shrinkage=0.1


Tree=9
num_leaves=31
num_cat=0
split_feature=14 29 12 17 19 16 6 15 28 18 27 17 28 28 8 2 25 18 1 16 15 23 25 19 12 14 1 22 26 19
split_gain=29617.3 1855.55 1088.85 793.614 440.302 388.551 400.135 397.653 371.916 275.499 208.065 110.53 107.075 94.0678 88.063 87.5928 131.011 180.868 238.263 219.385 215.257 97.4121 93.164 81.2334 89.6993 81.0258 79.737 90.773 91.6794 75.4646
threshold=-2.0440074791118534 3.1890927944746745 -2.5673449898526304 0.95780382377986206 -2.7997448043233466 -0.10421176947567797 -0.60049971602982943 -0.84318895892348456 2.2795105517733236 -0.50847748659813197 1.9979474217403013 1.9576196966023776 -0.029319744709919264 2.2795105517733236 0.53927825952091413 0.34125991617168522 0.31322515812675328 0.054026248160308023 -1.1122515717918378 0.67859610160554817 0.25296862018413191 -1.4159625905909805 1.5570871315263799 -1.3498789932818525 -0.56436832367560941 -2.292883073548857 0.2228008612832568 0.024326909402951135 0.95029069060809512 -1.9833770741530465
decision_type=2 2 2 2 2 2 2 2 2 2 2 2 2 2 2 2 2 2 2 2 2 2 2 2 2 2 2 2 2 2
left_child=25 2 -2 4 -4 11 -7 -8 10 -9 15 13 -11 -5 26 -6 23 -18 -19 20 29 -22 -23 24 -17 -1 -14 28 -28 -20
right_child=1 -3 3 5 8 6 7 9 -10 12 -12 -13 14 -15 -16 16 17 18 19 -21 21 22 -24 -25 -26 -27 27 -29 -30 -31
leaf_value=0.1247750153467522 0.13014437773047108 0.12474463502320948 0.12576573906497054 -0.12073498783036465 -0.12423352615771439 -0.10398876892763059 -0.11404381350769376 -0.12729270114881408 0.12253885602845596 -0.1325532783002332 0.12480222349483233 0.13281868359898114 0.13543588639286244 0.15489402969316382 -0.15116443121978573 0.01186478657578582 -0.12353751935986262 -0.12159350231140637 0.15750173960066063 -0.11914350168271051 -0.12537327916250687 0.14124664856026278 -0.13394845670108121 -0.12343457065302882 -0.10913013285336648 0.042283674342622563 0.10908077373477675 -0.094400585225611594 -0.13984819855608713 -0.12303206353756949
leaf_weight=10756.925131917 199.07750931382179 370.66323526203632 75.747952982783318 549.64789955317974 7814.3631830960512 296.5766047090292 149.72329817712307 65.266885966062546 64.94111967086792 20.877456471323967 35.349821031093597 18.666298896074295 325.85221000015736 12.667368456721304 13.801451712846754 96.339308902621269 477.13950081169605 237.52387239038944 11.03151063621044 105.47264637053013 17.23849618434906 181.81158545613289 13.194515332579611 2423.9928034991026 168.32303927838802 120.40398576855659 154.93947216868401 33.623492673039436 16.357147470116615 73.331005603075027
leaf_count=67598 1197 2331 465 3224 49006 1623 857 389 399 118 222 102 1754 65 68 500 2815 1426 54 597 98 872 72 14788 999 608 812 166 80 423
internal_value=0 -0.0960203 -0.102014 -0.105449 -0.114555 -0.0406673 -0.00511218 0.032462 -0.116108 0.0672404 -0.117438 -0.106579 0.0896943 -0.114526 0.0982146 -0.118175 -0.105733 -0.0769428 -0.0421834 0.00472713 0.0487752 0.102484 0.122626 -0.117691 -0.065087 0.123862 0.104699 0.0558233 0.0853105 -0.0863486
internal_weight=0 14023.5 13652.9 13453.8 11795.8 1658 1077.02 780.441 11720.1 630.718 11655.1 580.982 565.451 562.315 544.574 11619.8 3805.4 1116.74 639.604 402.08 296.607 212.245 195.006 2688.66 264.662 10877.3 530.772 204.92 171.297 84.3625
internal_count=153728 85522 83191 81994 72736 9258 5867 4244 72271 3387 71872 3391 2998 3289 2880 71650 22644 6357 3542 2116 1519 1042 944 16287 1499 68206 2812 1058 892 477
is_linear=0
shrinkage=0.1


Tree=10
num_leaves=31
num_cat=0
split_feature=14 29 19 17 8 16 18 6 1 27 8 4 17 28 14 2 26 14 20 8 18 8 26 28 19 25 12 4 29 22
split_gain=26072 1630.27 960.565 798.277 510.656 374.722 341.767 305.807 222.542 199.88 128.443 89.5227 86.7841 84.5878 81.1344 78.1396 122.714 212.775 176.25 162.635 151.894 143.395 109.6 74.1442 71.6325 63.6743 113.792 63.0721 141.213 54.2988
threshold=-2.0440074791118534 3.1890927944746745 -2.7997448043233466 0.98661695917827397 -2.284615985236595 -0.10421176947567797 -0.49141927049225514 -0.58677885739787194 0.6925217021837301 1.9979474217403013 0.4882052468576798 2.8064850824269532 1.9576196966023776 -2.616623772519914 -2.292883073548857 0.34125991617168522 -0.41513649525097523 0.21941505872129857 0.42856808786885359 0.045611735168316021 1.1496878595507554 -0.50540465476151486 -1.283139932074028 2.2795105517733236 -2.1086826753417056 1.0828555027916822 -1.0039741201824441 1.4699656826188039 0.92218021941948003 -0.57538112699276589
decision_type=2 2 2 2 2 2 2 2 2 2 2 2 2 2 2 2 2 2 2 2 2 2 2 2 2 2 2 2 2 2
left_child=14 2 -2 4 -4 12 -7 24 10 11 25 13 23 -6 -1 -15 17 18 19 20 21 -17 -23 -5 -8 -9 -27 28 -16 -24
right_child=1 -3 3 5 9 6 7 8 -10 -11 -12 -13 -14 15 27 16 -18 -19 -20 -21 -22 22 29 -25 -26 26 -28 -29 -30 -31
leaf_value=0.12186882155603573 0.12426017398664274 0.12184263134723478 0.12280498872252577 -0.11663513333176018 0.22311445324588705 -0.12440918984829444 0.10610514258118359 0.11689921276871831 -0.13075458811601912 0.12182739648864681 -0.10579541868150727 0.14691279313284472 0.12962116565915657 -0.1210896562155843 -0.20915223164291952 -0.10180594008045447 -0.1164483040897524 -0.11854685147494226 -0.11788958785579425 -0.10588963464969331 -0.12540600906819296 -0.12701570573180518 -0.1196635246580839 0.15105638367713128 -0.093308092864774109 0.11688264177038515 -0.067750437718931994 0.12920885727343787 0.083752188846592565 0.13026159641989993
leaf_weight=9953.3484154343605 189.65201322734356 342.96419258415699 91.971518233418465 486.67407405376434 7.3979324996471396 177.05357396602631 19.879415288567543 383.0795234888792 52.994441568851471 35.876834437251091 33.573262140154839 13.074763894081114 15.462290853261946 7278.4261760413647 25.497432008385658 42.978137210011482 2346.4169721901417 622.2763185352087 181.42256690561771 108.50057472288609 49.29659678041935 19.825113400816917 9.0958172082900983 10.571598485112188 191.93577919900417 77.414620116353035 58.684597343206406 46.664738342165947 46.436521738767624 196.30142061412334
leaf_count=67598 1238 2331 612 3044 34 1114 119 2130 325 244 182 78 89 49298 114 260 15192 4031 1159 680 292 125 56 55 1056 465 313 257 237 1000
internal_value=0 -0.0932962 -0.0991061 -0.102492 -0.111842 -0.0342435 0.00155447 0.0288335 0.0649992 -0.11382 0.0837669 -0.114597 -0.103689 -0.114912 0.120889 -0.115142 -0.103038 -0.0774495 -0.0353469 -0.000193915 0.0359262 0.0655799 0.0975214 -0.110944 -0.0745926 0.0960251 0.0372707 0.0386666 -0.0200696 0.119194
internal_weight=0 13042.8 12699.8 12510.2 11002.9 1507.32 994.615 817.562 605.746 10910.9 552.752 10875 512.708 10861.9 10071.9 10854.5 3576.11 1229.7 607.42 425.998 317.497 268.2 225.222 497.246 211.815 519.179 136.099 118.599 71.934 205.397
internal_count=153728 85522 83191 81953 73061 8892 5704 4590 3415 72449 3090 72205 3188 72127 68206 72093 22795 7603 3572 2413 1733 1441 1181 3099 1175 2908 778 608 351 1056
is_linear=0
shrinkage=0.1


Tree=11
num_leaves=31
num_cat=0
split_feature=14 29 12 17 19 18 28 16 6 15 27 2 22 14 8 20 16 29 22 25 28 14 17 0 7 0 8 15 1 26
split_gain=23009.8 1434.99 847.833 658.946 341.108 310.649 292.844 287.622 308.504 212.925 161.416 85.0909 116.67 186.484 187.495 229.78 116.435 113.698 102.041 100.051 81.5832 76.7264 75.7777 71.404 68.8674 66.9174 66.6886 64.2991 58.3416 61.6219
threshold=-2.0440074791118534 3.1890927944746745 -2.5673449898526304 0.95780382377986206 -2.7997448043233466 -0.49141927049225514 2.2795105517733236 -0.10421176947567797 -0.60049971602982943 -0.84318895892348456 1.9979474217403013 0.34125991617168522 -0.30525901002392969 0.24458689447756612 0.22280658965937236 0.41032324898784661 0.23882519019265985 -0.75254605172395139 0.77686948741209572 1.5297033229152601 -0.029319744709919264 -2.292883073548857 1.9576196966023776 -1.2665782739597911 0.092511735545251397 -1.0227308211161288 0.53927825952091413 0.75793785061083752 0.23969835220087651 0.95029069060809512
decision_type=2 2 2 2 2 2 2 2 2 2 2 2 2 2 2 2 2 2 2 2 2 2 2 2 2 2 2 2 2 2
left_child=21 2 -2 4 -4 -5 10 22 -9 -10 11 -6 -13 14 15 16 17 27 19 25 -11 -1 -7 -22 -17 -18 28 -14 -25 -30
right_child=1 -3 3 5 6 7 -8 8 9 20 -12 12 13 -15 -16 24 18 -19 -20 -21 23 -23 -24 26 -26 -27 -28 -29 29 -31
leaf_value=0.11935970354358204 0.12421481001613451 0.11933702300158547 0.12006586581982959 -0.11724965025690082 -0.1187109464408984 -0.10228874224861606 0.11719005186611896 -0.084388001444805655 -0.096992925539552244 -0.12602717919561421 0.11937896626435998 -0.11834618956601242 -0.12415300546460901 -0.1163446172678448 -0.12115804242648319 0.12478254769887356 -0.1285801783580118 -0.091709732642481626 -0.12780039416985589 -0.11005177824298951 -0.11125795996944293 0.036604959098534853 0.12565365133691203 0.12856716920743824 -0.11607284170417274 0.12865104754942003 -0.14110703746408657 0.12902484823237589 0.07371619718448684 -0.13986206932204795
leaf_weight=9185.6956410109997 171.6182112544775 316.50559218227863 64.724938273429871 365.47547641396523 6680.9656433314085 302.7562225908041 56.301604002714157 205.01038041710854 76.968918308615685 18.280851364135742 30.186736315488815 1616.7078146934509 12.710094735026358 790.36448946595192 262.72079491615295 12.57467384636402 10.71433003246784 124.13439325988293 23.715246215462685 22.203949809074402 17.166573315858841 113.41976144909859 15.322612270712851 299.20412050187588 212.25439639389515 180.27876472473145 11.54153600335121 47.593529134988785 150.15902750194073 14.844391867518423
leaf_count=67598 1197 2331 465 2532 49006 1969 399 1188 477 118 222 11349 83 5525 1829 65 66 799 155 141 87 608 96 1805 1461 945 63 226 847 76
internal_value=0 -0.0907909 -0.0964287 -0.099686 -0.108768 -0.0372732 -0.110237 -0.0109702 0.0212469 0.058067 -0.111514 -0.112211 -0.0991157 -0.0808196 -0.0499276 -0.020967 0.0225926 -0.0369858 0.0689749 0.0908634 0.0814137 0.11835 -0.0913082 0.0891071 -0.102602 0.114221 0.096337 0.075663 0.102241 0.0545018
internal_weight=0 12113 11796.5 11624.9 10148.2 1476.73 10083.4 1111.25 793.176 588.165 10027.1 9996.94 3315.97 1699.26 908.9 646.179 421.35 184.438 236.912 213.197 511.197 9299.12 318.079 492.916 224.829 190.993 475.749 60.3036 464.208 165.003
internal_count=153728 85522 83191 81994 72736 9258 72271 6726 4661 3473 71872 71650 22644 11295 5770 3941 2415 1108 1307 1152 2996 68206 2065 2878 1526 1011 2791 309 2728 923
is_linear=0
shrinkage=0.1


Tree=12
num_leaves=31
num_cat=0
split_feature=14 29 19 17 8 16 18 6 27 11 19 1 2 19 12 0 29 29 14 8 7 28 17 19 4 4 29 6 24 29
split_gain=20354.2 1267.34 757.333 652.558 401.171 290.922 260.587 223.333 154.699 100.868 110.549 98.6622 83.7841 118.727 185.191 99.1668 88.5912 255.405 77.4404 71.563 68.7165 68.0108 64.3179 61.6471 57.5694 56.6718 117.216 45.9973 45.1225 44.6461
threshold=-2.0440074791118534 3.0014183152231708 -2.7997448043233466 0.98661695917827397 -2.284615985236595 -0.10421176947567797 -0.49141927049225514 -0.26065475017922185 1.9979474217403013 0.52275864363722013 -0.40469823605027455 0.6925217021837301 0.34125991617168522 -1.5189572630656449 -0.56436832367560941 -0.71552360566021145 -0.75508310442495075 -0.76285665833484984 -2.292883073548857 0.33888179984773592 -2.4596343091328654 2.2795105517733236 1.9576196966023776 -2.3273653348657661 -0.41447789870324631 1.4699656826188039 0.96233499451626692 0.97774257449411095 0.54253028397554226 -0.76933139351913005
decision_type=2 2 2 2 2 2 2 2 2 2 2 2 2 2 2 2 2 2 2 2 2 2 2 2 2 2 2 2 2 2
left_child=18 2 -2 4 -4 20 -7 9 12 -8 28 19 21 14 15 -14 17 -15 -1 -9 -5 -6 -22 -21 -17 26 -20 -26 29 -11
right_child=1 -3 3 5 8 6 7 11 -10 10 -12 -13 13 16 -16 24 -18 -19 25 23 22 -23 -24 -25 27 -27 -28 -29 -30 -31
leaf_value=0.11718152665203373 0.11982844936286248 0.11146904262185187 0.11836997637138864 0.15664103617693956 -0.11655227966813933 -0.11897160134635501 -0.098812205338996512 0.098386074248813266 0.11717102121405568 -0.028741250946390247 -0.098419957587270193 -0.12093552607745922 -0.10557397075293391 -0.09440182488550844 -0.10801654668580235 -0.13468629197989956 -0.11127769107185947 0.11306310655635199 -0.19029145293796906 0.13027007103222055 -0.11067046774480918 0.12303615105725868 0.12257581412860313 -0.13237909273052459 0.11385147449479677 0.12421573749481428 0.078387539681337673 -0.1381758099939962 -0.14273403833513637 0.12917833838368925
leaf_weight=8458.0839377343655 162.83336599171162 308.00963046401739 78.50638373196125 10.344323523342608 6181.9699094444513 150.66318936645985 147.77552118897438 361.85398272424936 30.242520570755005 23.303438559174538 56.82429051399231 24.850817531347275 38.954516164958477 398.71297691762447 198.90678186714649 11.758969962596892 2277.3562670499086 69.714150205254555 25.981215626001358 13.553173646330832 422.61538749933243 11.870774388313292 12.162541165947912 26.233625486493111 110.43289075791836 42.583159759640694 43.296487361192703 7.7498496770858756 8.867776006460188 77.242180660367012
leaf_count=67598 1237 2445 609 52 49212 1106 906 2280 242 129 363 180 261 2827 1426 74 17224 354 117 74 3037 85 82 150 624 257 234 48 54 441
internal_value=0 -0.0885731 -0.0942179 -0.0974594 -0.10674 -0.0320648 0.000911207 0.0253026 -0.108632 -0.0386995 0.0147371 0.0724254 -0.109366 -0.0959843 -0.0426301 0.0343747 -0.103131 -0.0635256 0.116088 0.0843893 -0.0980851 -0.116093 -0.104146 -0.042909 0.0763291 0.033429 -0.0223751 0.0973248 0.0735057 0.0925773
internal_weight=0 11223.3 10915.3 10752.5 9416.18 1336.29 891.168 740.505 9337.67 314.013 166.238 426.492 9307.43 3113.59 367.803 168.896 2745.78 468.427 8569.94 401.641 445.122 6193.84 434.778 39.7868 129.942 111.861 69.2777 118.183 109.413 100.546
internal_count=153728 85522 83077 81840 72986 8854 5683 4577 72377 1893 987 2684 72135 22838 2433 1007 20405 3181 68206 2504 3171 49297 3119 224 746 608 351 672 624 570
is_linear=0
shrinkage=0.1


Tree=13
num_leaves=31
num_cat=0
split_feature=14 29 4 14 13 3 0 19 8 15 1 8 27 20 14 28 23 14 25 19 25 27 4 29 8 18 28 26 28 21
split_gain=18037.9 1124.54 683.212 471.216 463.991 396.975 332.904 209.332 236.095 203.249 133.094 130.933 87.5558 80.4629 73.3628 73.1101 65.4221 61.0516 57.9108 53.8843 60.5842 50.9364 49.9439 97.8575 44.313 43.6665 36.0521 31.8208 27.0016 32.475
threshold=-2.0440074791118534 3.1890927944746745 1.415085158754116 -0.76084288173041259 -0.17471384493460695 0.037534591729464641 0.37376424377253004 -2.7997448043233466 -1.3073456669818802 -0.82664091301947928 0.27332273995006146 -2.284615985236595 2.1174941877359039 -2.752965302410828 -2.292883073548857 -2.616623772519914 -1.1394659726476644 -1.1997712678830574 1.4551570274194197 1.3163326684685492 1.4551570274194197 0.38739431444989553 1.4699656826188039 0.92218021941948003 0.37983173605361747 1.1815211700203998 2.2795105517733236 -0.28156645144425085 0.68376950641282785 -0.31341038708027541
decision_type=2 2 2 2 2 2 2 2 2 2 2 2 2 2 2 2 2 2 2 2 2 2 2 2 2 2 2 2 2 2
left_child=14 2 3 4 6 18 9 -7 -9 -2 16 -5 -6 -13 -1 -10 -11 25 -4 20 -8 -21 23 -16 -18 28 -17 -25 29 -12
right_child=1 -3 5 11 12 7 19 8 15 10 17 13 -14 -15 22 26 24 -19 -20 21 -22 -23 -24 27 -26 -27 -28 -29 -30 -31
leaf_value=0.11528167840027961 -0.11936201536670697 0.11535153501142936 0.10979962268212834 0.11554469040032816 -0.10253139439929204 0.11591314962852262 -0.11074340777657746 0.12106603615142859 0.21163311079896652 -0.14009560542704802 -0.071260894586849574 0.16429507276494459 0.12017683438573173 -0.11131156777225842 -0.17914972308399571 -0.11535997339292857 0.12569911639812029 -0.10119916030789691 -0.1153996766429229 -0.11251664909313162 0.078221720067817746 0.15271851390124072 0.12093263293905786 0.11593592057537004 -0.13113280740667685 -0.13493988044614047 0.12819209305021148 -0.096856403003218627 -0.10994213226242218 0.11504712637765371
leaf_weight=7772.8182978928089 60.856282934546471 268.93493308871984 248.6775980591774 25.61559034883976 983.33895430713892 63.987983874976635 238.56054444611073 52.437717452645302 7.1433348506689063 10.002587914466856 11.051802210509775 10.607850149273871 17.975451119244099 7530.8675795421004 24.668460965156555 367.27644163370132 295.02581775933504 45.57274729013443 11.968511089682577 12.238787807524206 18.265738472342491 17.728791706264019 39.52269583940506 33.52451303601265 6.8744222670793524 12.315861463546751 6.1800722479820243 8.8912701010704023 7.7537066340446463 60.970713064074516
leaf_count=67598 472 2331 1835 220 7795 543 1881 409 34 62 65 74 147 63557 114 2965 1855 292 94 93 117 100 257 192 43 75 44 45 45 374
internal_value=0 -0.0864712 -0.0918328 -0.0992218 -0.0532124 -0.000496229 0.00371122 -0.0529138 -0.0778606 0.0521497 0.0753666 -0.110157 -0.0985334 -0.110924 0.114152 -0.105268 0.111515 -0.00653282 0.0994588 -0.0824975 -0.097304 0.0443962 0.0317592 -0.0207773 0.119851 0.0403138 -0.11133 0.07133 0.0673695 0.0864583
internal_weight=0 10392.2 10123.3 9365.62 1798.53 757.672 797.218 497.026 433.038 510.424 449.568 7567.09 1001.31 7541.48 7879.43 380.6 311.903 137.665 260.646 286.794 256.826 29.9676 106.607 67.0842 301.9 92.0921 373.457 42.4158 79.7762 72.0225
internal_count=153728 85522 83191 77267 13416 5924 5474 3995 3452 3283 2811 63851 7942 63631 68206 3043 1960 851 1929 2191 1998 193 608 351 1898 559 3009 237 484 439
is_linear=0
shrinkage=0.1


Tree=14
num_leaves=31
num_cat=0
split_feature=14 29 17 19 8 5 28 27 24 10 2 26 14 1 25 3 19 18 28 14 26 26 18 12 28 4 28 6 11 23
split_gain=16002.7 993.787 618.444 434.144 308.449 263.757 193.906 123.512 109.469 86.8813 85.2441 107.25 184.023 147.885 100.898 107.649 79.0396 75.5275 75.0993 69.139 63.24 70.6423 72.7085 69.4637 63.1985 61.6172 54.6672 51.3617 49.649 45.8965
threshold=-2.0440074791118534 3.1890927944746745 0.95780382377986206 -2.7997448043233466 -2.284615985236595 0.46313461708974074 -0.32504394536698294 1.9979474217403013 -0.84511205756938301 -1.2522065724277776 0.34125991617168522 -0.41513649525097523 0.21941505872129857 -1.0397363777526254 -0.10938071096150548 -0.1397322378958534 -1.8524246885592506 0.040851338861937099 0.41499284671132147 -2.292883073548857 0.92269960744558788 -0.55533036126439739 -0.080669489092888458 -0.47157308178947771 -2.616623772519914 2.9788263664260812 2.2795105517733236 -1.0713178552644984 0.88047633485968924 -0.27240970680265986
decision_type=2 2 2 2 2 2 2 2 2 2 2 2 2 2 2 2 2 2 2 2 2 2 2 2 2 2 2 2 2 2
left_child=19 2 3 -2 -5 8 25 10 18 -8 26 12 13 27 16 -16 -15 -17 -4 -1 21 23 -23 -11 -13 -7 -6 -12 -10 -22
right_child=1 -3 5 4 7 6 9 -9 28 20 11 24 -14 14 15 17 -18 -19 -20 -21 29 22 -24 -25 -26 -27 -28 -29 -30 -31
leaf_value=0.11361773710527362 0.11408372432047841 0.1136790261520607 -0.089389739657571243 0.11454694242318758 -0.11281197954170273 -0.10651987029385367 -0.080169465980291288 0.11388788420928345 -0.10972589987797909 0.067965276941696504 0.058452686384064145 0.19520620519454554 -0.10837031514514001 0.14338553471454221 -0.072627650311595487 -0.053304397328943112 -0.11157847446959085 0.12464335785018661 0.094812214261320221 0.030361613104314452 -0.13283760127419983 -0.1067992479253433 0.10492379635588896 -0.09677893667378297 -0.10634426362694649 0.12447030307688096 0.11705718706383968 -0.11462029886713476 -0.042963499736283814 0.07300075152661864
leaf_weight=7130.838807284832 93.694634787738323 246.73839050531387 35.103305079042912 64.981985785067081 5214.7263282686472 128.77463142573833 49.434279590845108 25.880319707095623 372.90559139847755 61.796665199100971 19.361217886209488 6.9781335666775695 458.78339060395956 14.580940417945383 49.359446868300438 28.628432758152485 73.190536767244339 142.95200855284929 59.90414160490036 101.15998023748398 27.898163564503193 17.115565866231918 309.95919260382652 43.687924049794674 1725.5027163401246 12.68585319817066 10.3664059266448 149.91166936606169 158.83574990928173 17.708386622369289
leaf_count=67598 867 2331 275 597 49006 1070 323 243 3072 421 137 34 4015 70 358 210 631 801 410 608 181 147 2264 274 15085 94 87 1290 1097 132
internal_value=0 -0.0844221 -0.089636 -0.0999225 -0.102434 -0.0255038 0.0181624 -0.104214 -0.0721178 0.0460383 -0.104929 -0.09039 -0.0631302 -0.0197075 0.0214807 0.057514 -0.0692229 0.0949525 0.0267534 0.112453 0.059086 0.0708946 0.0938445 -0.000265853 -0.10513 -0.0858052 -0.112356 -0.0948244 -0.0897834 -0.0529134
internal_weight=0 9621.45 9374.71 8078.9 7985.2 1295.81 669.061 7920.22 626.749 527.6 7894.34 2669.25 936.768 477.984 308.711 220.94 87.7715 171.58 95.0074 7232 478.166 432.559 327.075 105.485 1732.48 141.46 5225.09 169.273 531.741 45.6066
internal_count=153728 85522 83191 73431 72564 9760 4906 71967 4854 3742 71724 22631 7512 3497 2070 1369 701 1011 685 68206 3419 3106 2411 695 15119 1164 49093 1427 4169 313
is_linear=0
shrinkage=0.1


Tree=15
num_leaves=31
num_cat=0
split_feature=14 29 17 19 8 5 0 27 20 18 2 22 14 8 20 0 0 19 18 3 4 14 26 27 25 27 12 24 7 25
split_gain=14215.6 880.335 564.556 385.253 272.657 226.687 181.794 108.832 94.011 87.3466 87.0297 103.815 172.794 159.314 185.636 93.2343 104.098 85.2388 73.2872 79.43 71.6862 70.2717 66.0757 65.0513 62.4822 57.0311 70.8298 53.5528 52.0336 47.2645
threshold=-2.0440074791118534 3.0014183152231708 0.95780382377986206 -2.7997448043233466 -2.284615985236595 0.43368905551229231 0.3483438422699443 1.9979474217403013 1.3904203859844049 -0.49141927049225514 0.34125991617168522 -0.30525901002392969 0.24458689447756612 0.23386503780043408 0.41032324898784661 0.51283099983466784 -1.0873160343291846 1.0242121905425581 0.040851338861937099 0.081050359882808981 1.5195214423871748 -2.292883073548857 0.95029069060809512 0.23753875346837836 1.5297033229152601 0.19588369312165402 -0.79246055700040696 -1.2656635901511406 0.11024591278687601 1.4551570274194197
decision_type=2 2 2 2 2 2 2 2 2 2 2 2 2 2 2 2 2 2 2 2 2 2 2 2 2 2 2 2 2 2
left_child=21 2 3 -2 -5 8 22 10 27 -10 -6 -12 13 14 15 16 -13 29 19 -18 -17 -1 25 -19 -20 -7 -27 -4 -16 -8
right_child=1 -3 5 4 7 6 17 -9 9 -11 11 12 -14 -15 28 20 18 23 24 -21 -22 -23 -24 -25 -26 26 -28 -29 -30 -31
leaf_value=0.11215519095519876 0.11256577824398513 0.10571990992391445 0.030344967431116917 0.1129891192053917 -0.11092723178857078 0.089952882457336375 -0.097175204959727243 0.11239957932004987 -0.11235959398900229 0.099678246533968798 -0.10921142760040725 -0.11687581361196053 -0.10893048976565894 -0.11418497424585879 0.11561099077971643 -0.11829108354803897 0.19447204186139863 -0.119597883388949 0.12093319376141197 -0.10945078405225837 0.11639650017251034 0.027671440734382258 -0.11250282475548712 0.11473899706419806 -0.094009025338014723 0.092432890869882864 -0.088586831123254731 -0.097529743604857583 -0.10830965174547938 0.062582448471403415
leaf_weight=6532.0671499073505 85.763152822852135 241.63941634446383 35.338714003562927 59.277611546218395 4783.7519816756248 283.98628794401884 179.96157904714346 23.522931642830372 29.854784965515137 55.624567158520222 1186.6125426590443 29.843189932405949 578.12240470200777 189.08982541412115 11.10771846026182 58.080222547054291 11.454357042908667 16.010337613523006 193.03140695393085 34.498275838792324 16.774333357810974 99.960882857441902 21.383533604443073 45.544632114470005 14.543170258402823 41.124321296811104 45.564995862543583 447.09120338410139 157.87411767244339 20.642980970442295
leaf_count=67598 866 2445 260 594 49033 2235 1489 241 266 363 11364 255 5500 1803 59 501 52 121 1126 293 92 608 153 319 114 315 295 3768 1462 138
internal_value=0 -0.0825414 -0.0877971 -0.0981527 -0.100612 -0.0248114 0.0153152 -0.10235 -0.0710364 0.0256212 -0.103045 -0.0878468 -0.0682615 -0.0354375 -0.00719368 0.0335615 0.059782 -0.0491494 0.0805768 -0.0336936 -0.0656994 0.110882 0.0584209 0.0537884 0.105874 0.0682812 -0.00271335 -0.0881627 -0.0935906 -0.0807355
internal_weight=0 8897.11 8655.48 7433.35 7347.58 1222.13 654.219 7288.31 567.909 85.4794 7264.78 2481.03 1294.42 716.297 527.207 358.225 283.37 262.16 253.527 45.9526 74.8546 6632.03 392.059 61.555 207.575 370.676 86.6893 482.43 168.982 200.605
internal_count=153728 85522 83077 73355 72489 9722 5065 71895 4657 629 71654 22621 11257 5757 3954 2433 1840 2067 1585 345 593 68206 2998 440 1240 2845 610 4028 1521 1627
is_linear=0
shrinkage=0.1


Tree=16
num_leaves=31
num_cat=0
split_feature=14 29 17 19 8 18 16 6 1 27 2 22 14 8 20 24 19 15 3 14 0 23 22 28 25 17 4 29 7 28
split_gain=12647.1 784.594 534.625 342.897 243.566 214.276 188.666 158.092 112.862 97.5289 83.0931 95.7759 156.571 143.246 162.609 80.0167 76.4215 83.2666 76.2124 71.3799 61.232 60.0652 58.5072 52.3686 50.943 47.4589 45.8567 83.1317 45.6052 42.39
threshold=-2.0440074791118534 3.1890927944746745 0.95780382377986206 -2.7997448043233466 -2.284615985236595 -0.49141927049225514 -0.10421176947567797 -0.5594986136067458 0.78627642010987409 1.9979474217403013 0.34125991617168522 -0.30525901002392969 0.24458689447756612 0.23386503780043408 0.41032324898784661 0.79519948260208928 -0.82508276589409146 0.67451248232018723 -0.4173029981992103 -2.292883073548857 -1.0873160343291846 -1.0564312681429369 1.3381070487125752 2.2795105517733236 1.5570871315263799 1.9576196966023776 1.4699656826188039 1.144259419099652 0.092511735545251397 2.1102497178071808
decision_type=2 2 2 2 2 2 2 2 2 2 2 2 2 2 2 2 2 2 2 2 2 2 2 2 2 2 2 2 2 2
left_child=19 2 3 -2 -5 -4 25 16 21 10 23 -12 13 14 15 18 17 -8 -13 -1 -20 -9 24 -6 -22 29 27 -21 -16 -7
right_child=1 -3 5 4 9 6 7 8 -10 -11 11 12 -14 -15 28 -17 -18 -19 20 26 22 -23 -24 -25 -26 -27 -28 -29 -30 -31
leaf_value=0.11086560062768976 0.11122867675171262 0.11098427990810272 -0.10348032834321008 0.11160918370048958 -0.10986458959629504 -0.098141458843919227 0.085339406796285003 -0.13551650395913295 -0.11790096105383273 0.11107991335499255 -0.10731858584434723 -0.11447037200305538 -0.10690928529753173 -0.1126928486936407 0.11523349837297921 -0.095677011116466829 -0.11083883008575945 -0.11126972074741204 -0.11551366138868989 -0.1560063718878579 0.10084590444319308 0.07737518507952508 -0.10197476681820371 0.11665919414520315 -0.11893985731374045 0.11784236407483056 0.11677941925837645 0.074571735458691779 -0.10524736231166468 0.097470418782205304
leaf_weight=5975.6810937523842 78.578532971441746 207.86949719488621 258.71748266369104 54.532320477068424 4380.6370967552066 211.10726731270552 60.222276203334332 13.672601126134394 34.110325172543526 21.697932451963425 1091.9456978738308 25.747194916009903 533.09313117712736 173.24461426585913 10.018819272518156 43.161561019718647 99.401330292224884 33.536563016474247 17.487233780324459 27.615302965044975 227.3657648563385 431.55593594163656 16.884698681533337 10.229542165994642 11.058893904089926 11.808616429567335 35.204251304268837 36.045853242278099 147.48162700235844 11.691853567957876
leaf_count=67598 867 2331 2591 597 49006 1891 418 89 312 243 11366 242 5504 1803 50 375 810 240 161 129 1413 3235 147 87 95 96 257 222 1475 78
internal_value=0 -0.080822 -0.0858003 -0.0964644 -0.098877 -0.0232041 -0.000308443 0.0266282 0.0574066 -0.100588 -0.101274 -0.0858654 -0.0664337 -0.0343462 -0.00715671 0.0315912 -0.0497504 0.0150144 0.0499908 0.109471 0.065513 0.0708375 0.0779123 -0.109337 0.0906515 -0.0775218 0.0251956 -0.0254498 -0.0912223 -0.0878763
internal_weight=0 8216.86 8008.99 6843.16 6764.59 1165.82 907.107 672.499 479.339 6710.05 6688.36 2297.49 1205.54 672.45 499.206 341.705 193.16 93.7588 298.544 6074.55 272.797 445.229 255.309 4390.87 238.425 234.608 98.8654 63.6612 157.5 222.799
internal_count=153728 85522 83191 73431 72564 9760 7169 5104 3636 71967 71724 22631 11265 5761 3958 2433 1468 658 2058 68206 1816 3324 1655 49093 1508 2065 608 351 1525 1969
is_linear=0
shrinkage=0.1


Tree=17
num_leaves=31
num_cat=0
split_feature=14 29 17 19 8 18 16 6 1 27 2 14 13 29 1 27 0 0 19 14 15 4 16 23 28 17 4 3 26 26
split_gain=11270.3 696.424 496.976 305.539 217.64 189.429 163.166 134.211 96.7864 86.804 74.2017 90.9292 136.714 138.113 87.3362 128.014 69.3185 77.6278 67.981 67.7565 66.1342 64.6625 51.5648 51.0127 46.7571 42.1392 40.5371 72.8841 46.9848 40.3239
threshold=-2.0440074791118534 3.1890927944746745 0.95780382377986206 -2.7104158258279951 -2.284615985236595 -0.49141927049225514 -0.10421176947567797 -0.5594986136067458 0.78627642010987409 1.9979474217403013 0.34125991617168522 -0.57868820458274783 -0.63299227547954218 -0.52005625616046891 -0.55064964916141457 0.15638984719664542 -0.94478119207598477 -1.0873160343291846 -0.76143645441198682 -2.292883073548857 0.5882553868931284 -0.41447789870324631 0.17492947771200731 -1.0564312681429369 2.2795105517733236 1.8423516155002795 1.4699656826188039 -0.54202571666073374 -0.28156645144425085 0.93623392267321481
decision_type=2 2 2 2 2 2 2 2 2 2 2 2 2 2 2 2 2 2 2 2 2 2 2 2 2 2 2 2 2 2
left_child=19 2 3 -2 -5 -4 25 18 23 10 24 12 13 -12 -13 -16 17 -14 20 -1 -8 -15 -17 -9 -6 -7 27 28 -21 -25
right_child=1 -3 5 4 9 6 7 8 -10 -11 11 14 16 21 15 22 -18 -19 -20 26 -22 -23 -24 29 -26 -27 -28 -29 -30 -31
leaf_value=0.10972535721034987 0.082298684768559782 0.10983040982881905 -0.10080723992748158 0.1103921116271957 -0.10857046048123356 -0.089262459100897446 0.076802771250303312 -0.13059678481613896 -0.11617731178071661 0.10991843613815805 -0.11018906207695167 -0.10711183019533839 -0.11251471351263796 -0.11522704660778887 -0.082842230596582994 -0.032581500023829667 -0.1039518851091603 0.082207187214318939 -0.11061542479238631 0.10747838495039395 -0.096603139151350104 0.14124940871348643 0.14640675220561791 0.081772350917769077 0.1140083100333347 0.05820303268149335 0.11438046822104866 -0.21930788915966071 -0.10522147997768266 -0.026324131264495981
leaf_weight=5460.3280370235443 95.769055835902691 189.96281748265028 239.99064326286316 49.858991041779518 4001.3164823949337 198.07899925857782 58.501195892691612 12.813482083380221 31.298707209527493 19.751359656453133 41.943859919905663 1331.7397995814681 35.41406512260437 11.224504776298998 225.22241808474064 26.877023465931416 270.79627608507872 48.527835063636303 88.431385762989521 31.320216253399845 35.243650786578655 79.128596156835556 40.124052934348583 380.36126793920994 9.4603219702839834 21.479113027453423 32.487837195396423 14.543779194355009 15.537419736385347 37.953000634908676
leaf_count=67598 1023 2331 2591 597 48962 1891 426 89 312 242 417 15188 374 112 2239 220 2884 313 779 202 263 560 213 2955 87 174 257 66 83 280
internal_value=0 -0.0792263 -0.0840853 -0.0949519 -0.0976936 -0.0222096 -0.000381852 0.024978 0.0536179 -0.0993829 -0.100058 -0.0848829 -0.0469849 0.0397722 -0.0962487 -0.0467423 -0.0793403 5.63894e-05 -0.0477201 0.108277 0.0116103 0.109388 0.0746068 0.0659446 -0.108045 -0.0748361 0.0240473 -0.0237485 0.0369497 0.0719649
internal_weight=0 7581.27 7391.31 6287.15 6191.39 1104.15 864.161 644.603 462.426 6141.53 6121.78 2111 487.035 132.297 1623.96 292.223 354.738 83.9419 182.176 5554.22 93.7448 90.3531 67.0011 431.128 4010.78 219.558 93.8893 61.4014 46.8576 418.314
internal_count=153728 85522 83191 73431 72408 9760 7169 5104 3636 71811 71569 22520 4660 1089 17860 2672 3571 687 1468 68206 689 672 433 3324 49049 2065 608 351 285 3235
is_linear=0
shrinkage=0.1


Tree=18
num_leaves=31
num_cat=0
split_feature=14 29 17 19 8 5 1 8 4 13 22 2 26 16 8 23 18 22 10 14 0 3 13 4 18 28 11 20 14 26
split_gain=10048 618.298 455.582 278.985 192.442 166.808 152.229 129.296 89.8531 84.9682 90.0877 77.2941 90.2137 128.705 184.71 77.882 77.2969 70.3689 64.9634 64.6027 62.3268 59.027 56.8796 63.0969 53.6815 52.3876 47.5026 44.613 44.61 40.732
threshold=-2.0440074791118534 3.0014183152231708 0.95780382377986206 -2.7997448043233466 -2.284615985236595 -0.5664788683343166 0.78627642010987409 0.33888179984773592 1.681324078862116 -0.1027885748478989 -0.2154398056327311 0.34125991617168522 -0.25029609185447554 0.19885271509238608 -0.13098081614898646 2.4545833485350301 0.98775066748763818 -0.69579277762215608 -1.2522065724277776 -2.292883073548857 -0.58204440778386035 0.67248272524082553 -1.1147722781446268 1.3201536098287645 1.7407730298201243 -2.616623772519914 1.0444512526737777 -2.752965302410828 -0.31602336661405672 0.82705367676998598
decision_type=2 2 2 2 2 2 2 2 2 2 2 2 2 2 2 2 2 2 2 2 2 2 2 2 2 2 2 2 2 2
left_child=19 2 3 -2 -5 -4 7 9 -9 22 29 15 13 18 16 27 17 -15 20 -1 28 -19 23 -7 25 -14 -26 -6 -13 -11
right_child=1 -3 5 4 11 6 -8 8 -10 10 -12 12 24 14 -16 -17 -18 21 -20 -21 -22 -23 -24 -25 26 -27 -28 -29 -30 -31
leaf_value=0.10871470258433587 0.10925343799004897 0.10131951954374259 -0.10831530089987416 0.10931584123570336 0.15812253615664396 -0.10763430443479277 -0.099764492431743498 -0.11255089428524989 0.082354568720315463 0.069447122645935985 -0.1020985009317855 0.14393342127346861 0.18415792112416285 -0.11435087347262363 -0.092281514435344325 0.10942861135132634 -0.090746875897288054 0.1342573922788767 -0.10258216541545356 0.02296378908715668 -0.11218763047797489 -0.086092064480056102 0.076149623690801568 0.11731950120258471 -0.11016301488385248 -0.10469523145187264 0.13375997948021037 -0.10758807605303596 -0.11029629109238424 -0.1122771314824679
leaf_weight=4984.287183791399 67.03682491928339 187.89325381815434 183.20871759206057 45.313314467668533 6.3298675492405883 37.280458323657513 137.17086966335773 110.56141370162368 30.09029833227396 82.342805691063404 78.147259667515755 29.903153777122498 6.3139831721782675 15.246077187359331 140.87619893997908 16.68250747770071 28.32395400851965 121.81532406806946 423.67514992505312 89.432754427194595 27.156490132212639 13.504775218665598 349.37626674026251 18.7346166446805 14.162808075547217 1125.5652096122503 18.299801155924797 3658.9266446605325 8.9732154458761197 14.507210083305834
leaf_count=67598 866 2445 2109 594 69 273 1528 1061 242 710 656 148 34 166 1590 215 274 793 5031 608 327 141 2840 181 172 13754 104 48970 107 122
internal_value=0 -0.0776309 -0.0825687 -0.0935593 -0.0959441 -0.0216951 -0.00320366 0.0151661 -0.0708538 0.0360122 -0.0222236 -0.0975886 -0.081622 -0.0559818 -0.00663618 -0.106148 0.0608096 0.0893199 -0.0882031 0.107203 0.00405447 0.112267 0.0611512 -0.032397 -0.0994476 -0.103084 0.0273411 -0.107129 0.0852536 0.0422266
internal_weight=0 6997.42 6809.53 5768.11 5701.07 1041.42 858.211 721.04 140.652 580.389 174.997 5655.76 1973.82 809.474 319.766 3681.94 178.89 150.566 489.708 5073.72 66.0329 135.32 405.391 56.0151 1164.34 1131.88 32.4626 3665.26 38.8764 96.85
internal_count=153728 85522 83077 73355 72489 9722 7613 6085 1303 4782 1488 71895 22641 8577 2964 49254 1374 1100 5613 68206 582 934 3294 454 14064 13788 276 49039 255 832
is_linear=0
shrinkage=0.1


Tree=19
num_leaves=31
num_cat=0
split_feature=14 29 17 19 8 18 16 6 1 2 26 8 16 7 11 22 27 14 19 5 4 25 18 8 19 25 12 28 11 14
split_gain=8962.48 553.064 432.949 240.333 170.135 158.429 126.19 117.035 79.216 72.0455 85.863 116.876 162.037 98.6443 85.4921 74.8925 69.574 65.7325 57.4692 59.3887 48.8938 54.3979 48.79 48.5879 64.6478 51.8712 73.0031 46.2152 41.1861 40.9614
threshold=-2.0440074791118534 3.1890927944746745 0.93031799810860261 -2.7997448043233466 -2.284615985236595 -0.49141927049225514 -0.10421176947567797 -0.5594986136067458 0.78627642010987409 0.34125991617168522 -0.25029609185447554 0.045611735168316021 0.19885271509238608 0.18390064987762653 0.47992795706074332 -0.6496645192384386 1.9979474217403013 -2.292883073548857 -0.76143645441198682 0.46313461708974074 -0.053688738164510655 1.5570871315263799 1.7407730298201243 0.33888179984773592 -2.3273653348657661 1.1980928246910643 -1.0039741201824441 -2.616623772519914 1.1635104652060335 1.4252429933210959
decision_type=2 2 2 2 2 2 2 2 2 2 2 2 2 2 2 2 2 2 2 2 2 2 2 2 2 2 2 2 2 2
left_child=17 2 3 -2 -5 29 -7 18 23 16 11 12 13 -11 15 -14 -6 -1 19 -8 -17 -22 27 25 -25 -9 -27 -12 -24 -4
right_child=1 -3 5 4 9 6 7 8 -10 10 22 -13 14 -15 -16 20 -18 -19 -20 -21 21 -23 28 24 -26 26 -28 -29 -30 -31
leaf_value=0.10781697991285272 0.10829808797456747 0.1079592205460507 -0.10877533330775263 0.10836187352251898 -0.10596576268647347 -0.069366687269019969 -0.10866661584628248 0.091656536760916785 -0.11322774822183877 0.078260429050084721 0.17346688664919649 -0.10404280049613349 -0.1151168580951826 -0.10004515202901521 -0.11334046985972679 -0.092917803040710331 0.10817453114732217 0.020864089601231001 -0.10730136739643661 0.063973933000151723 0.12961324678395378 -0.11528561566917515 -0.098054690843549272 0.11714416036873916 -0.12323154566728566 0.10344371584186199 -0.097913514964292833 -0.10380938147076693 0.13477357719070548 0.065131981428683136
leaf_weight=4545.5994869321585 58.985982976853848 159.18168631196022 204.32422251999378 40.938049733638763 3334.5895634070039 204.88529510051012 29.621771536767483 288.74619264155626 28.176674291491508 36.061365604400635 6.0466127693653098 289.11716116964817 19.04104308784008 222.25606234371662 29.204337432980537 12.651365861296652 15.241605680435894 88.633688345551491 84.254355050623417 60.875624373555183 129.22172558307648 9.754716604948042 14.248210623860361 17.749399624764919 30.268715526908636 34.036370769143105 38.229137159883976 1025.7481764853001 16.277234517037868 14.505259823054073
leaf_count=67598 835 2331 2622 588 48810 2181 268 2467 333 241 34 3838 222 2767 326 131 222 608 864 461 874 95 183 134 229 329 249 13654 93 141
internal_value=0 -0.0761258 -0.0807808 -0.0924183 -0.094695 -0.0216825 -0.00143882 0.0213036 0.0489516 -0.0963061 -0.0802287 -0.0542578 -0.0228436 -0.0751535 0.0447621 0.0718162 -0.104991 0.106154 -0.0478682 0.00746492 0.0952908 0.112424 -0.0984983 0.0601236 -0.0343792 0.0726934 -0.00307616 -0.102184 0.0260975 -0.0972478
internal_weight=0 6454.24 6295.06 5259.38 5200.4 1035.67 816.844 611.958 437.206 5159.46 1809.63 747.308 458.191 258.317 199.873 170.669 3349.83 4634.23 174.752 90.4974 151.628 138.976 1062.32 409.03 48.0181 361.012 72.2655 1031.79 30.5254 218.829
internal_count=153728 85522 83191 72913 72078 10278 7515 5334 3741 71490 22458 8494 4656 3008 1648 1322 49032 68206 1593 729 1100 969 13964 3408 363 3045 578 13688 276 2763
is_linear=0
shrinkage=0.1


Tree=20
num_leaves=31
num_cat=0
split_feature=14 29 17 19 8 5 28 8 1 2 22 14 0 6 1 27 20 14 20 13 4 4 4 9 23 14 4 10 7 3
split_gain=8002.09 491.991 402.218 214.492 151.825 143.294 125.67 99.423 80.7097 69.8207 82.0183 127.412 107.489 116.424 71.59 114.211 69.646 66.7792 66.3634 65.7021 52.6407 47.5362 42.3898 41.745 40.8923 40.0491 37.002 62.8299 34.755 34.5364
threshold=-2.0440074791118534 3.1890927944746745 0.93031799810860261 -2.7997448043233466 -2.284615985236595 -0.5664788683343166 -0.35617000602562571 0.33888179984773592 0.23969835220087651 0.34125991617168522 -0.30525901002392969 -0.16922465696707492 0.47562054447243179 0.34446296061691722 -0.41313309080951571 0.14737417965582431 0.42856808786885359 -2.292883073548857 -2.752965302410828 -0.1027885748478989 1.415085158754116 2.9186975330238463 1.415085158754116 -0.2980544227523052 2.4545833485350301 -1.1640259671122057 1.4699656826188039 -1.0043445538106901 1.0103334723361113 -0.2806086131498064
decision_type=2 2 2 2 2 2 2 2 2 2 2 2 2 2 2 2 2 2 2 2 2 2 2 2 2 2 2 2 2 2
left_child=17 2 3 -2 -5 -4 21 8 19 18 -11 12 13 16 -13 -16 29 -1 -6 28 25 -7 -9 -21 -20 -10 27 -19 -8 -12
right_child=1 -3 5 4 9 6 7 22 20 10 11 14 -14 -15 15 -17 -18 26 24 23 -22 -23 -24 -25 -26 -27 -28 -29 -30 -31
leaf_value=0.10701801763347425 0.1074466060473222 0.10714470245879543 -0.10509718840716076 0.10750831273581772 0.13360998613481942 -0.1052251367779838 0.1019835225563281 -0.11283191535110293 -0.0061558216313010667 -0.10231973982747396 -0.051301918337528153 -0.10692270734683358 -0.10024498868488939 -0.086348090220119925 -0.091770221063504284 0.10280914863428679 -0.10905120640655529 0.059310097090371765 -0.10549957898380379 -0.11656325022943832 0.10256577475415939 0.1163675731784773 0.04570491119792422 0.049482971196724394 0.10903216840396704 -0.1115264848244322 0.11145440122081074 -0.15072577526530967 -0.03598167138109102 0.1068900461709589
leaf_weight=4142.1643506735563 53.774046935141087 145.07248905301094 167.16926147416234 37.321330681443214 11.713377270847557 131.39342609420419 217.66271011158824 76.867566872388124 189.88640823587775 776.8173004463315 15.308898188173769 428.24170640856028 93.380496084690094 66.681396722793579 84.868751086294651 46.800576828420162 19.529314488172531 34.837756246328354 3038.9896460995078 27.720837559551001 36.740309812128544 10.450841322541235 21.606197543442249 33.363220680505037 8.9110699221491796 44.529386300593615 28.980628833174706 24.091157525777817 19.931021958589554 140.10474029183388
leaf_count=67598 835 2331 2274 588 167 1702 2011 850 1619 11319 161 6253 1225 837 1067 292 272 225 48744 282 432 97 191 278 121 385 257 126 157 1032
internal_value=0 -0.0747505 -0.0793004 -0.0911556 -0.0933952 -0.0208024 -0.00340878 0.0147359 0.0307699 -0.0949799 -0.0785457 -0.057909 -0.00912825 0.0260856 -0.0870954 -0.0226089 0.0689409 0.105188 -0.103959 0.0666288 -0.0087286 -0.0888986 -0.0780472 -0.0258712 -0.104872 -0.0261719 0.018941 -0.0265562 0.09041 0.0913075
internal_weight=0 5944.84 5799.76 4822.44 4768.67 977.321 810.152 668.308 569.834 4731.35 1671.73 894.916 335.005 241.624 559.911 131.669 174.943 4230.07 3059.61 298.678 271.156 141.844 98.4738 61.0841 3047.9 234.416 87.9095 58.9289 237.594 155.414
internal_count=153728 85522 83191 72913 72078 10278 8004 6205 5164 71490 22458 11139 3527 2302 7612 1359 1465 68206 49032 2728 2436 1799 1041 560 48865 2004 608 351 2168 1193
is_linear=0
shrinkage=0.1


Tree=21
num_leaves=31
num_cat=0
split_feature=14 29 17 19 8 18 4 15 13 13 14 0 10 15 14 12 8 1 3 1 2 26 16 23 21 9 23 19 3 29
split_gain=7149.6 437.539 376.305 191.66 136.876 131.417 103.343 99.8552 86.9655 106.371 70.2837 114.63 150.596 77.0897 64.1558 58.5722 56.6165 58.8986 52.101 51.3589 70.1311 182.386 51.3954 50.833 45.2526 34.45 33.7486 33.7421 33.3829 33.0761
threshold=-2.0440074791118534 3.1890927944746745 0.93031799810860261 -2.528792925084788 -2.284615985236595 -0.49141927049225514 1.415085158754116 -0.82664091301947928 0.14239071054155908 -1.0854596097796465 -0.57868820458274783 0.3483438422699443 -0.8471011563000318 0.092665584922158914 -2.292883073548857 -0.48948784265376799 0.33888179984773592 0.2771059975446471 0.4010886402459633 0.35959142860243559 -0.19833799243345426 -0.67286145728909319 0.64362393825644248 -0.81662685178411754 0.62252148866779888 0.97993012539042035 -1.096982273857338 -2.6152099607073462 -0.097605924106768313 0.96233499451626692
decision_type=2 2 2 2 2 2 2 2 2 2 2 2 2 2 2 2 2 2 2 2 2 2 2 2 2 2 2 2 2 2
left_child=14 2 3 15 -5 27 7 -7 9 -9 11 12 13 -6 -1 -2 17 24 19 20 21 -14 -22 -19 26 28 -11 -4 -16 -10
right_child=1 -3 5 4 10 6 -8 8 29 16 -12 -13 18 -15 25 -17 -18 23 -20 -21 22 -23 -24 -25 -26 -27 -28 -29 -30 -31
leaf_value=0.10630576178167024 0.084535738025968366 0.10641876799075088 0.087950408185418244 0.10674728028841762 -0.1059674839933243 -0.11073381859718801 0.087770262374301869 -0.095261260428852676 -0.10829257943357816 -0.12505360558704537 -0.10060969015694199 -0.10265780114259281 1.3682785801794266 0.11854957713962221 0.078945221987252276 -0.10951311709293195 -0.11511824489078951 0.098832678661862391 -0.10047801359001994 -0.10737340236163513 0.099376396846770965 -0.044352069085743566 -0.11971349678334973 -0.037804243015120975 -0.11828798950166425 -0.13010970019147802 0.10568123842646525 -0.10502045781294245 -0.095931257054848632 0.02128190113558864
leaf_weight=3771.813669487834 80.530984479933977 132.11668046191335 9.5526887364685518 33.998183880001307 18.724647931754589 95.796039957553148 111.38809463381767 66.490675788372755 85.70585897937417 6.5647854059934607 3532.9129148721695 410.21375069022179 1.4239858835935595 83.450947966426611 57.333651132881641 19.278753478080034 21.41374484449625 38.080059066414833 160.27608244121075 29.473246749490499 31.288752142339945 2.5518709644675246 16.277641069144011 95.538930561393499 10.214329894632099 13.236380904912947 184.41991866752505 176.14252982288599 13.483021788299082 25.58030591532588
leaf_count=67598 1070 2331 102 588 280 1170 1196 642 893 52 59516 6800 25 699 447 274 250 315 2631 473 328 45 184 914 98 79 1750 2661 82 235
internal_value=0 -0.0733563 -0.077798 -0.0899455 -0.0931103 -0.0198658 -0.00101861 -0.0167219 0.000142902 0.0208487 -0.0946955 -0.0669722 -0.0243518 0.0774047 0.10438 0.0470542 0.0425207 0.0526027 -0.0674409 -0.00208237 0.0581259 0.461593 0.0244019 0.0011359 0.0867824 0.0179719 0.0977501 -0.0950935 0.0456499 -0.0785085
internal_weight=0 5479.41 5347.29 4420.4 4320.59 926.888 741.193 629.805 534.009 422.722 4286.59 753.681 343.467 102.176 3855.87 99.8097 356.232 334.818 241.292 81.0155 51.5423 3.97586 47.5664 133.619 201.199 84.0531 190.985 185.695 70.8167 111.286
internal_count=153728 85522 83191 72913 71569 10278 7515 6319 5149 4021 70981 11465 4665 979 68206 1344 3379 3129 3686 1055 582 70 512 1229 1900 608 1802 2763 529 1128
is_linear=0
shrinkage=0.1


Tree=22
num_leaves=31
num_cat=0
split_feature=14 29 17 19 8 5 1 8 2 26 1 14 18 14 19 21 13 20 13 29 12 18 29 27 4 26 23 17 7 14
split_gain=6384.63 390.566 339.594 174.316 120.21 117.375 102.693 84.2915 72.6931 80.842 118.555 83.0203 88.1948 62.9733 62.4872 60.8298 71.8764 58.8215 51.8578 51.2098 57.9093 47.3032 46.0421 40.7859 40.3473 37.2491 37.0432 36.3228 33.5216 32.1061
threshold=-2.0440074791118534 3.0014183152231708 0.93031799810860261 -2.7997448043233466 -2.284615985236595 -0.58318995545211572 0.78627642010987409 0.33888179984773592 0.34125991617168522 0.031167396067579418 -0.97047442761032776 0.29577181315431539 1.1496878595507554 -2.292883073548857 -2.3273653348657661 -0.63299263272410344 -0.12495154028119748 -2.752965302410828 -0.99779124585228385 -0.75508310442495075 -0.33720074467028122 1.5052352922039998 0.99053325166580442 -2.5622628991585255 2.56530774119675 0.93623392267321481 2.4545833485350301 1.9576196966023776 0.80790677939884048 -0.60119579287281488
decision_type=2 2 2 2 2 2 2 2 2 2 2 2 2 2 2 2 2 2 2 2 2 2 2 2 2 2 2 2 2 2
left_child=13 2 3 -2 -5 -4 7 15 17 10 29 12 19 -1 -9 28 18 -6 -17 -12 -21 23 -23 -11 -13 -20 -19 -8 -7 -10
right_child=1 -3 5 4 8 6 27 14 9 21 11 24 -14 -15 -16 16 -18 26 25 20 -22 22 -24 -25 -26 -27 -28 -29 -30 -31
leaf_value=0.10566982372707356 0.10614615172636271 0.097123446917466161 -0.10377498303652827 0.10606918710677304 0.13593180269421223 0.1006724137443506 -0.10785511458056272 0.07659035232003375 -0.021575842900577021 0.17512891804891761 0.10615508896859514 -0.10151254900638758 -0.10436773327336207 0.016778055032823831 -0.10498166621580557 -0.054640161888815125 -0.059997170317623631 -0.10403488056137765 0.071045224557760953 0.093438496083566858 -0.055516604944172203 -0.11336028672428321 0.12002874584934807 -0.10428012913047424 0.12975044182033851 -0.075970681550252425 0.108619716005514 0.11877208388680056 -0.11835367643148385 -0.1060851060416505
leaf_weight=3432.3682390749454 45.475149314850569 133.19896204397082 139.0859934091568 30.795141212642193 10.315334532409905 123.9780012331903 102.94441363215446 24.140677656978369 53.738176263868809 5.2628006041049948 92.29206108674407 96.056015230715275 44.37853742018342 81.58978209644556 88.211518596857786 50.133237563073635 107.04458019882441 2534.6078729070723 197.65512589737773 43.852228261530399 64.472150962799788 15.03058174997568 19.314449742436409 714.32828989997506 8.1870025470852834 18.880276013165712 8.2179820537567121 7.5939004048705092 7.4050526097416869 275.05341143533587
leaf_count=67598 835 2445 2240 585 161 1363 1570 256 697 28 638 1567 653 608 1149 456 1037 48690 1886 407 818 241 140 12429 43 143 120 61 77 4787
internal_value=0 -0.0718452 -0.0764119 -0.0885406 -0.0907452 -0.0196007 -0.00351874 0.0123728 -0.0922661 -0.0742319 -0.0491768 -0.00860395 0.0231996 0.103606 -0.065968 0.0297987 0.00922217 -0.102381 0.0370078 0.0514189 0.00478388 -0.0967644 0.0178896 -0.102237 -0.0833497 0.0582265 -0.103348 -0.092286 0.0883276 -0.0922728
internal_weight=0 5061.65 4928.45 4061.38 4015.9 867.073 727.987 617.448 3985.11 1431.97 678.03 349.238 244.995 3513.96 112.352 505.096 373.713 2553.14 266.669 200.616 108.324 753.936 34.345 719.591 104.243 216.535 2542.83 110.538 131.383 328.792
internal_count=153728 85522 83077 72839 72004 10238 7998 6367 71419 22448 9610 4126 2516 68206 1405 4962 3522 48971 2485 1863 1225 12838 381 12457 1610 2029 48810 1631 1440 5484
is_linear=0
shrinkage=0.1


Tree=23
num_leaves=31
num_cat=0
split_feature=14 29 17 19 8 5 28 2 26 1 14 18 20 20 18 4 23 26 29 8 18 29 29 29 6 20 27 4 1 14
split_gain=5710.59 418.306 343.536 155.389 130.627 122.84 83.3124 69.1499 76.1671 106.349 72.182 80.707 55.0798 53.7052 55.1708 53.6353 43.8387 43.0615 55.4909 42.0041 41.6762 41.7432 39.2425 49.8054 38.6837 38.4945 36.6002 35.5965 35.4861 57.9162
threshold=-2.292883073548857 3.1890927944746745 0.93031799810860261 -2.7997448043233466 -2.284615985236595 0.46313461708974074 -0.32504394536698294 0.34125991617168522 0.046230917013158387 -0.97047442761032776 0.29577181315431539 1.1496878595507554 -2.752965302410828 1.3904203859844049 -0.50847748659813197 -0.016682248621888267 0.19045009159231266 -0.55533036126439739 -0.76285665833484984 -0.49427379841336899 1.5052352922039998 0.99053325166580442 -0.76933139351913005 -0.76933521248869285 0.85402848603261916 0.90478239115515746 -2.5622628991585255 2.56530774119675 0.3088961414743106 -1.0241661433429055
decision_type=2 2 2 2 2 2 2 2 2 2 2 2 2 2 2 2 2 2 2 2 2 2 2 2 2 2 2 2 2 2
left_child=-1 2 3 -2 -5 13 -7 12 9 -9 11 16 -6 28 -15 25 19 18 -17 -11 26 -22 23 -19 -21 -8 -10 -12 29 -4
right_child=1 -3 5 4 7 6 15 8 20 10 27 -13 -14 14 -16 17 -18 22 -20 24 21 -23 -24 -25 -26 -27 -28 -29 -30 -31
leaf_value=0.10510126154404509 0.10552732741209839 0.10692484547502311 0.0067410543265596038 0.10667748892381755 0.1351409508040993 -0.072320508691197175 -0.11677191550545143 -0.090572542018937607 0.16437432660395729 -0.024367530162361969 -0.10012227643259392 -0.10525051053406727 -0.10249466582461382 -0.11873935769570872 0.088858547723193224 -0.11658556279294299 -0.098187640738790771 0.11008258485441469 0.051433645071074986 0.10489400918228248 -0.11490193787347128 0.11355587702205874 0.090272377153454181 -0.12709242669457158 -0.1013038860011243 0.045801076424286366 -0.10364887038164171 0.12193852480360966 -0.11145607266747337 -0.10436721756856922
leaf_weight=3121.6783025562763 41.37658666074276 131.38160513341427 99.28640641272068 33.687130738049746 9.7947149798274022 86.052078519016504 35.646302778273821 308.44322799518704 5.1351387202739707 42.193989507853985 88.790445856750011 42.085720133036375 2328.8593862578273 18.196089342236519 43.180668421089649 30.658067520707846 18.715837024152279 15.79438044503331 54.776096299290657 125.33682192862034 14.134674221277235 18.421160437166691 208.30684836581349 20.149101216346025 9.8104226216673833 24.627096250653267 650.76612064987421 7.8576166778802863 145.98838627710938 88.940392598509789
leaf_count=67598 835 2516 891 643 167 1281 406 5533 29 480 1580 659 48903 290 392 206 274 194 561 972 242 140 2299 156 145 281 12381 43 2279 1352
internal_value=0 -0.0690243 -0.0740311 -0.0871899 -0.0893426 -0.0174858 0.0167379 -0.0911418 -0.0729521 -0.0482101 -0.00918149 0.020399 -0.101499 -0.0586667 0.0273129 0.0363905 0.047371 0.0522478 -0.00886008 0.0627326 -0.096069 0.014367 0.0736222 -0.0228724 0.089926 -0.0503462 -0.10155 -0.0820684 -0.0744564 -0.0457595
internal_weight=0 4748.39 4617.01 3745.41 3704.03 871.602 476.01 3670.35 1331.69 643.234 334.791 238.143 2338.65 395.592 61.3768 389.958 196.057 329.684 85.4342 177.341 688.457 32.5558 244.25 35.9435 135.147 60.2734 655.901 96.6481 334.215 188.227
internal_count=153728 86130 83614 73026 72191 10588 5384 71548 22478 9686 4153 2530 49070 5204 682 4103 1871 3416 767 1597 12792 382 2649 350 1117 687 12410 1623 4522 2243
is_linear=0
shrinkage=0.1


Tree=24
num_leaves=31
num_cat=0
split_feature=14 29 17 19 8 18 4 15 6 16 14 0 10 18 0 3 12 20 22 1 18 16 5 25 28 15 26 20 21 20
split_gain=5109.14 371.697 319.576 141.346 119.345 107.876 90.251 93.1746 70.9379 82.8992 65.0021 91.3473 127.708 89.1976 58.5401 51.1503 50.6253 49.204 48.8465 53.5481 51.6881 46.6195 42.9647 51.313 39.5219 43.5607 35.4465 34.0956 34.01 32.8361
threshold=-2.292883073548857 3.1890927944746745 0.93031799810860261 -2.4775535762485856 -1.5932990599373822 -0.49141927049225514 1.415085158754116 -0.85846702965221089 -0.5594986136067458 -0.13623300582019393 -0.39016465187781962 0.3483438422699443 -0.74502675032372545 0.4603501264752265 -1.0873160343291846 0.4010886402459633 -0.47157308178947771 -1.4144689607897378 -0.86010801575950047 0.35959142860243559 0.84754841277926429 0.82683881450295915 0.46313461708974074 0.7240635473006557 0.40473594973516552 -0.12884563961675383 1.0309574541386495 0.42856808786885359 -0.027353829744382729 -2.5249396932904178
decision_type=2 2 2 2 2 2 2 2 2 2 2 2 2 2 2 2 2 2 2 2 2 2 2 2 2 2 2 2 2 2
left_child=-1 2 3 16 -5 -4 7 -7 22 -10 11 12 13 -6 -11 18 -2 -15 -14 20 21 -20 -9 -24 25 -25 -16 -19 -23 -17
right_child=1 -3 5 4 10 6 -8 8 9 14 -12 -13 15 17 26 29 -18 27 19 -21 -22 28 23 24 -26 -27 -28 -29 -30 -31
leaf_value=0.10459233675998235 0.076125500295341042 0.10624725474414576 -0.093354827157598047 0.074357072307853961 -0.10550153444335214 -0.11617784856941345 0.083244828027281059 -0.11012000603169413 -0.096818784878953235 -0.10337628092468903 -0.099582901382698388 -0.10172131382885477 -0.10512361308629269 0.57500376882617843 0.074285416160792747 0.16301377843408837 -0.10677005496149315 0.10710697045425122 0.105812524536491 -0.10234746952064636 -0.075743078795667079 0.7004932161310583 -0.094448133565011347 -0.10883979427015347 -0.13108783695548401 0.11670333187472504 -0.11679702222939357 -0.11453987569958901 0.17182746115632266 -0.10553907229140989
leaf_weight=2837.6540234386921 71.362824030220509 119.59844116121531 150.26223913952708 43.991403453052044 27.518202215433121 79.463426981121302 109.90467375144362 70.023222949355841 43.960355576127768 22.275622934103012 2471.2242339029908 399.54866948723793 39.067624874413013 2.1274869665503493 227.96370950341225 4.6614020615816107 19.207747340202332 82.399630758911371 33.133616156876087 20.764896176755428 14.130891039967535 2.4437497854232788 44.338201276957989 10.437266226857899 10.926257129758595 47.690979089587927 10.139859389513729 7.5785700604319564 2.4238154254853717 195.66556450352073
leaf_count=67598 1123 2516 2776 807 548 1148 1340 954 645 185 54575 8547 776 16 2318 59 367 751 368 449 183 23 551 168 92 323 88 131 30 4273
internal_value=0 -0.0676233 -0.0724993 -0.0859299 -0.0892659 -0.0167041 0.000305718 -0.0157646 0.000594362 0.0302002 -0.0914453 -0.0672593 -0.0353798 0.052478 0.0516451 -0.0690339 0.0373379 0.0996772 -0.0148995 0.0334542 0.0875458 0.148265 -0.0485302 -0.0104967 0.0434064 0.0762057 0.066148 0.0884384 0.437243 -0.0992901
internal_weight=0 4384.23 4264.64 3437.25 3346.68 827.386 677.124 567.219 487.755 304.34 3302.69 831.464 431.915 119.624 260.379 312.292 90.5706 92.1057 111.965 72.897 52.1321 38.0012 183.416 113.393 69.0545 58.1282 238.104 89.9782 4.86757 200.327
internal_count=153728 86130 83614 73026 71536 10588 7812 6472 5324 3236 70729 16154 7607 1446 2591 6161 1490 898 1829 1053 604 421 2088 1134 583 491 2406 882 53 4332
is_linear=0
shrinkage=0.1


Tree=25
num_leaves=31
num_cat=0
split_feature=14 4 14 29 3 28 4 8 0 8 1 19 18 2 28 26 9 25 28 21 12 12 28 24 15 23 15 29 29 26
split_gain=4572.55 334.305 266.408 164.256 163.952 153.604 151.115 94.6422 94.3638 82.0021 78.5262 70.6494 62.9915 61.5417 50.6083 38.0421 41.2356 36.9417 35.1545 34.3618 31.4114 30.7471 46.0407 29.2751 26.0513 25.0148 44.2769 74.2552 53.3874 28.2394
threshold=-2.292883073548857 1.3201536098287645 -0.67727362846357586 3.1890927944746745 0.25433329516937392 -0.19816699199982821 -0.52246405794836226 -0.64000118181601784 -1.0748285439445346 0.33888179984773592 0.2347070070890804 -2.7997448043233466 1.013090933319299 1.2911959286449737 2.2795105517733236 0.95029069060809512 0.94769551439686917 1.3861501092876691 0.53208366316550426 1.0610962677171594 0.78772594883948299 -0.27565062607268781 0.55256364973193284 -0.91333564979563719 -0.98321738296582883 -0.43520863736186727 0.80137568478742283 -0.75744854685022733 -0.76285665833484984 -0.93278275566801472
decision_type=2 2 2 2 2 2 2 2 2 2 2 2 2 2 2 2 2 2 2 2 2 2 2 2 2 2 2 2 2 2
left_child=-1 2 5 14 21 17 -7 -6 -8 10 13 -9 15 19 25 16 18 -2 20 24 -12 -3 -23 -20 -10 26 -4 28 -28 -29
right_child=1 4 3 -5 7 6 8 11 9 -11 12 -13 -14 -15 -16 -17 -18 -19 23 -21 -22 22 -24 -25 -26 -27 27 29 -30 -31
leaf_value=0.10413626991298947 -0.10065657229096672 0.095234831692570715 -0.096596658153973808 0.10423131078926001 0.099866743172845857 -0.088152332887765791 -0.10714376978974488 0.10545871486063892 -0.1428604239345119 -0.10781176395833036 0.11349349115065231 -0.10216971406708286 -0.11188580213840932 -0.060909752513899629 0.11091411214939609 -0.12425980678272917 -0.1225114409670533 0.055748367826094061 0.095636985070027325 -0.10931163146803363 -0.1269901731536463 -0.098967673158609104 0.10689163451760503 -0.11348538329032834 0.11492531693311805 -0.10328414322596824 -0.050250512251346892 0.0090516816308906668 0.12679803966547609 -0.10054178326836082
leaf_weight=2578.2866409420967 274.93452926725149 179.08631515130401 602.30773109570146 41.790583867579699 35.879643425345421 166.16575386747718 51.299268797039986 18.427770677953959 3.9961056262254706 36.615085266530514 81.333943828940392 148.07949206978083 40.247626770287752 25.743198692798615 11.812645778059958 14.410018566995857 12.889240361750124 15.979026254266499 11.031480580568315 7.3931050635874263 5.8201214708387843 22.263235162943602 21.218998987227678 17.025929819792509 206.45592271536589 1765.7717912197113 32.537114437669516 28.418501652777195 35.739223808050156 136.17424443736672
leaf_count=67598 6001 2806 13999 1073 655 3289 663 396 52 660 716 3080 459 371 176 155 180 166 123 113 85 423 243 179 2437 43174 593 484 244 3135
internal_value=0 -0.0662242 -0.076059 -0.0924557 0.0176898 -0.0312488 -0.00524682 -0.0474472 0.0215412 0.0358004 0.048134 -0.079191 -0.00141282 0.0853077 -0.0956016 0.0297868 0.0471154 -0.0920657 0.0660924 0.102587 0.0974341 0.0769203 0.0014901 -0.0312636 0.11003 -0.0965396 -0.0822799 -0.0452499 0.0424255 -0.0816194
internal_weight=0 4050.85 3625.89 2654.55 424.955 971.34 680.427 202.387 514.261 462.962 426.347 166.507 182.758 243.588 2612.76 142.511 128.101 290.914 115.211 217.845 87.1541 222.569 43.4822 28.0574 210.452 2600.95 835.177 232.869 68.2763 164.593
internal_count=153728 86130 78527 62878 7603 15649 9482 4131 6193 5530 4870 3476 1897 2973 61805 1438 1283 6167 1103 2602 801 3472 666 302 2489 61629 18455 4456 837 3619
is_linear=0
shrinkage=0.1


Tree=26
num_leaves=31
num_cat=0
split_feature=14 14 20 12 4 1 3 20 29 8 26 19 8 29 4 10 24 11 26 26 2 14 1 26 29 21 29 11 6 8
split_gain=4096.99 300.902 221.116 161.226 152.339 181.778 96.9197 93.656 86.3631 70.53 63.7019 57.1021 56.032 50.1794 53.3517 43.3669 38.4211 37.9529 57.7365 32.3674 62.2463 83.2073 77.4206 31.2158 25.4439 25.2611 24.851 24.659 20.5582 17.8148
threshold=-2.292883073548857 -0.76084288173041259 3.1504405807071962 -2.5673449898526304 -0.59063374962405357 0.75388751213257699 0.88788808044589695 -2.752965302410828 -0.76285665833484984 0.39347877363747724 -0.50528480751018345 -2.7997448043233466 -1.5932990599373822 -0.76933139351913005 0.82586319545462172 -1.1367489562715407 1.2541536468702359 -0.29358730355474211 -0.43970881998694139 -0.41513649525097523 0.29918795962737715 0.20645408028199855 -0.98375450645007956 -1.283139932074028 -0.77749450410572007 -0.013370522180692771 8.8731794923210181 -0.33983046339229733 -1.0400574619135894 1.0000000180025095e-35
decision_type=2 2 2 2 2 2 2 2 2 2 2 2 2 2 2 2 2 2 2 2 2 2 2 2 2 2 2 2 2 2
left_child=-1 4 3 -3 -2 6 8 -5 10 16 -6 -9 25 14 -12 -7 17 18 -10 20 26 22 28 -24 -23 -13 -14 29 -22 -25
right_child=1 2 -4 7 5 15 -8 11 9 -11 13 12 19 -15 -16 -17 -18 -19 -20 -21 21 24 23 27 -26 -27 -28 -29 -30 -31
leaf_value=0.10372720627670427 -0.10017746596385445 0.11071128442086711 0.10589180132757817 0.12330743283154622 -0.10008788543738603 0.12205223081909265 -0.10327333526466072 0.10609768792752486 0.087539622474146872 -0.082855042017674296 -0.10289142685818863 0.12797640802419094 -0.10014561495507657 0.10249561806740803 0.11238113646982889 -0.10214536410276263 -0.11968348803243277 0.1031928713423742 -0.058744560933062295 -0.10239131277873695 0.065491618375167357 0.08749172941794249 -0.10795929785031871 0.10114456355946587 -0.10156815815428305 -0.097428170618762716 0.1038247636722967 -0.021586285888267588 -0.10442406118115131 -0.10723615381166485
leaf_weight=2341.6613149642944 179.91762385517359 40.98711359500885 61.342802796512842 20.589334279298782 64.027136074379086 9.1187051832675916 52.454962369054556 14.646966759115456 73.53955727443099 30.328226990997791 38.243640776723623 16.705402482301 650.55275831371546 47.372510995715857 16.470727041363716 160.23656545951962 9.7972943931817991 246.71741611510515 42.616351336240768 1562.4034207165241 8.0509857945144159 7.4063310846686354 11.670184306800364 79.431002601981163 183.13537259399891 7.0787679590284815 6.0285778269171706 25.705982364714146 61.620348829776049 4.3261214382946482
leaf_count=67598 4040 779 1468 450 654 65 1119 339 1041 527 443 215 17798 546 232 3599 146 3297 707 41135 92 71 223 643 4413 129 170 325 1386 78
internal_value=0 -0.065011 -0.0818454 -0.0861102 -0.0171233 0.00176974 0.0267939 -0.0891437 0.0387821 0.0637923 -0.0218935 -0.0908014 -0.0919004 0.0271487 -0.0380877 -0.0900737 0.0757265 0.0810024 0.0338695 -0.0932979 -0.0796095 -0.047476 -0.000797041 0.0475121 -0.0942194 0.0608903 -0.0982728 0.0640874 -0.0847892 0.0903815
internal_weight=0 3732.52 2761.68 2700.34 970.841 790.923 621.568 2659.35 569.113 402.999 166.114 2638.76 2624.12 102.087 54.7144 169.355 372.671 362.873 116.156 2600.33 1037.93 381.346 190.805 121.133 190.542 23.7842 656.581 109.463 69.6713 83.7571
internal_count=153728 86130 69714 68246 16416 12376 8712 67467 7593 5718 1875 67017 66678 1221 675 3664 5191 5045 1748 66334 25199 7231 2747 1269 4484 344 17968 1046 1478 721
is_linear=0
shrinkage=0.1


Tree=27
num_leaves=31
num_cat=0
split_feature=14 14 20 19 13 15 29 8 1 15 20 12 4 9 23 26 10 4 26 2 14 1 25 12 27 29 22 28 26 3
split_gain=3673.96 277.557 197.972 146.037 135.85 97.8977 79.6972 78.9277 76.923 60.4814 47.5581 46.8209 45.9261 41.4514 37.8243 35.8766 32.6165 30.8904 28.8813 47.1507 80.5537 62.2003 39.6105 26.9265 25.2675 24.866 33.0519 44.3895 23.1216 22.2581
threshold=-2.292883073548857 -0.76084288173041259 3.1504405807071962 -2.3273653348657661 -0.1027885748478989 -0.22906135768229066 2.9061260996008542 -1.5932990599373822 0.24398765069085401 -0.18901208107091219 -2.752965302410828 -2.0860001366726291 -0.21702394689553198 -0.12322175053705177 -0.24276446412101357 -0.58515488422477913 -0.8471011563000318 -0.69149424613404298 -0.59481614373274028 0.29918795962737715 0.15216723238488714 -0.98375450645007956 -0.33346060639203035 -2.5673449898526304 2.1174941877359039 0.80717032330041005 -0.30525901002392969 0.027817786665286563 0.95029069060809512 -0.078395041231978199
decision_type=2 2 2 2 2 2 2 2 2 2 2 2 2 2 2 2 2 2 2 2 2 2 2 2 2 2 2 2 2 2
left_child=-1 4 3 9 5 13 11 -5 12 -3 -9 -6 -7 17 15 16 -10 -2 19 -12 21 -21 -23 -20 25 -13 27 -27 -17 -29
right_child=1 2 -4 7 6 8 -8 10 14 -11 18 24 -14 -15 -16 28 -18 -19 23 20 -22 22 -24 -25 -26 26 -28 29 -30 -31
leaf_value=0.10335997074251846 -0.10998832838438451 0.080138491552345814 0.10533372759003526 0.07118918735364245 0.10110543355652131 -0.046491221798184192 0.09647353247277643 0.13218573740319814 0.12747811710603371 -0.090342284309907983 -0.096506564722848534 -0.092400057915228304 0.10581077473652969 -0.1018576036206911 -0.10417438691790787 0.086019910957877241 -0.11743750476663517 0.046053384304466073 0.10585593848573181 -0.083439841199092521 -0.096964463659454284 -0.10185966170246352 0.082245241857536677 -0.10198762258143329 0.11158653758184733 -0.12391881012299709 -0.092014544025083661 0.12948251185922527 -0.11308857321921231 -0.11063115407652087
leaf_weight=2125.9672006294131 16.911740772426128 73.33216904103756 55.784350287169218 29.911048173904419 15.70456327497959 22.248883027583361 31.65697868168354 9.400244200602172 6.935511488467454 29.055093511939049 492.16466239467263 296.34765303693712 179.82671836949885 72.202063918113708 32.066485729068518 56.311534687876701 25.175818253308535 50.778284821659327 6.2585204914212218 49.049913287162781 150.39844375476241 13.675232172012327 80.354835335165262 1536.2314527370036 7.128462988883256 13.275527387857435 45.773739144206047 26.539006348699331 6.5061303265392771 4.5177958384156254
leaf_count=67598 377 1273 1468 595 359 356 624 223 60 667 14840 6526 2490 1570 700 695 246 623 135 1131 3913 288 694 44487 151 219 1013 225 85 97
internal_value=0 -0.0638985 -0.0809591 -0.0851668 -0.0165436 0.0209238 -0.0563918 -0.0902236 0.0507137 0.0317601 -0.0922891 -0.0682155 0.0890421 -0.0491515 -0.0102746 0.0214443 -0.0645398 0.00706777 -0.0931954 -0.077589 -0.0458643 0.00784968 0.05547 -0.101144 -0.0749717 -0.0784129 -0.0324108 0.0291309 0.0653979 0.0945535
internal_weight=0 3435.52 2525.62 2469.83 909.907 468.963 440.944 2367.44 329.071 102.387 2337.53 409.287 202.076 139.892 126.995 94.929 32.1113 67.69 2328.13 785.643 293.478 143.08 94.0301 1542.49 393.582 386.454 90.1061 44.3323 62.8177 31.0568
internal_count=153728 86130 69714 68246 16416 7202 9214 66306 4632 1940 65711 8590 2846 2570 1786 1086 306 1000 65488 20866 6026 2113 982 44622 8231 8080 1554 541 780 322
is_linear=0
shrinkage=0.1


Tree=28
num_leaves=31
num_cat=0
split_feature=14 14 20 19 0 13 3 1 29 15 29 4 14 3 8 12 16 11 24 24 15 25 13 29 26 12 20 10 21 12
split_gain=3292.06 257.357 173.281 140.862 131.283 101.492 76.3753 74.913 68.496 61.9253 54.6799 49.843 45.5971 36.9854 36.0242 33.4422 30.2106 42.1336 35.1657 47.84 29.187 28.815 27.9515 47.3691 44.3409 24.9685 24.3861 23.5333 23.1188 22.6231
threshold=-2.292883073548857 -0.57868820458274783 3.1504405807071962 -2.2432653494801928 0.37376424377253004 0.21091738544636165 0.88788808044589695 0.045825856046094217 3.1890927944746745 -0.14397291565519207 3.1890927944746745 1.7830868206686257 -1.1640259671122057 -0.097605924106768313 -1.5932990599373822 -2.0860001366726291 0.10024285054398534 -0.42393373715117144 0.22798138130949777 1.1722439482394951 -0.85846702965221089 1.0828555027916822 1.1088246044083341 -0.75034610174560645 -0.42710977354327334 0.82788327068246104 -2.752965302410828 -1.1785279612257458 -0.013370522180692771 -0.36904579477358801
decision_type=2 2 2 2 2 2 2 2 2 2 2 2 2 2 2 2 2 2 2 2 2 2 2 2 2 2 2 2 2 2
left_child=-1 4 3 9 5 6 7 -2 14 29 11 16 13 21 28 -7 17 -6 -19 20 -20 -9 26 24 25 -24 -16 -17 -5 -3
right_child=1 2 -4 8 10 15 -8 12 -10 -11 -12 -13 -14 -15 22 27 -18 18 19 -21 -22 -23 23 -25 -26 -27 -28 -29 -30 -31
leaf_value=0.10303003015609034 0.096881449819937765 0.092749058230559442 0.10485631968017187 0.12787246924186366 -0.10082752009414851 0.10055265143844812 -0.095896293093190421 0.098501761127489651 0.1034192689775435 -0.0921454309261108 0.1072820724463345 0.10820596948985206 -0.073129714775584762 -0.10729109593886221 0.17823760060887817 0.032853484022941776 -0.10399453643850665 -0.097941238907016212 -0.10677520926727364 -0.1079923901267551 0.12362352549130472 -0.0009117156474549601 0.099808466245800448 -0.089548130448287522 -0.10239554019519902 -0.10666869202327985 -0.10102022037896173 -0.074423199360900721 -0.10787074521268965 -0.10504207853356201
